tree
version=v4
num_class=1
num_tree_per_iteration=1
label_index=0
max_feature_idx=334
objective=regression
feature_names=sphere_Финансы/Энергетика avg_word_length unique_words_ratio topic_lda_0 topic_lda_1 topic_lda_2 topic_lda_3 topic_lda_4 topic_lda_5 topic_lda_6 topic_lda_7 topic_lda_8 topic_lda_9 topic_nmf_0 topic_nmf_1 topic_nmf_2 topic_nmf_3 topic_nmf_4 topic_nmf_5 topic_nmf_6 topic_nmf_7 topic_nmf_8 topic_nmf_9 embedding_0 embedding_1 embedding_2 embedding_3 embedding_4 embedding_5 embedding_6 embedding_7 embedding_8 embedding_9 embedding_10 embedding_11 embedding_12 embedding_13 embedding_14 embedding_15 embedding_16 embedding_17 embedding_18 embedding_19 embedding_20 embedding_21 embedding_22 embedding_23 embedding_24 embedding_25 embedding_26 embedding_27 embedding_28 embedding_29 embedding_30 embedding_31 embedding_32 embedding_33 embedding_34 embedding_35 embedding_36 embedding_37 embedding_38 embedding_39 embedding_40 embedding_41 embedding_42 embedding_43 embedding_44 embedding_45 embedding_46 embedding_47 embedding_48 embedding_49 embedding_50 embedding_51 embedding_52 embedding_53 embedding_54 embedding_55 embedding_56 embedding_57 embedding_58 embedding_59 embedding_60 embedding_61 embedding_62 embedding_63 embedding_64 embedding_65 embedding_66 embedding_67 embedding_68 embedding_69 embedding_70 embedding_71 embedding_72 embedding_73 embedding_74 embedding_75 embedding_76 embedding_77 embedding_78 embedding_79 embedding_80 embedding_81 embedding_82 embedding_83 embedding_84 embedding_85 embedding_86 embedding_87 embedding_88 embedding_89 embedding_90 embedding_91 embedding_92 embedding_93 embedding_94 embedding_95 embedding_96 embedding_97 embedding_98 embedding_99 embedding_100 embedding_101 embedding_102 embedding_103 embedding_104 embedding_105 embedding_106 embedding_107 embedding_108 embedding_109 embedding_110 embedding_111 embedding_112 embedding_113 embedding_114 embedding_115 embedding_116 embedding_117 embedding_118 embedding_119 embedding_120 embedding_121 embedding_122 embedding_123 embedding_124 embedding_125 embedding_126 embedding_127 embedding_128 embedding_129 embedding_130 embedding_131 embedding_132 embedding_133 embedding_134 embedding_135 embedding_136 embedding_137 embedding_138 embedding_139 embedding_140 embedding_141 embedding_142 embedding_143 embedding_144 embedding_145 embedding_146 embedding_147 embedding_148 embedding_149 embedding_150 embedding_151 embedding_152 embedding_153 embedding_154 embedding_155 embedding_156 embedding_157 embedding_158 embedding_159 embedding_160 embedding_161 embedding_162 embedding_163 embedding_164 embedding_165 embedding_166 embedding_167 embedding_168 embedding_169 embedding_170 embedding_171 embedding_172 embedding_173 embedding_174 embedding_175 embedding_176 embedding_177 embedding_178 embedding_179 embedding_180 embedding_181 embedding_182 embedding_183 embedding_184 embedding_185 embedding_186 embedding_187 embedding_188 embedding_189 embedding_190 embedding_191 embedding_192 embedding_193 embedding_194 embedding_195 embedding_196 embedding_197 embedding_198 embedding_199 embedding_200 embedding_201 embedding_202 embedding_203 embedding_204 embedding_205 embedding_206 embedding_207 embedding_208 embedding_209 embedding_210 embedding_211 embedding_212 embedding_213 embedding_214 embedding_215 embedding_216 embedding_217 embedding_218 embedding_219 embedding_220 embedding_221 embedding_222 embedding_223 embedding_224 embedding_225 embedding_226 embedding_227 embedding_228 embedding_229 embedding_230 embedding_231 embedding_232 embedding_233 embedding_234 embedding_235 embedding_236 embedding_237 embedding_238 embedding_239 embedding_240 embedding_241 embedding_242 embedding_243 embedding_244 embedding_245 embedding_246 embedding_247 embedding_248 embedding_249 embedding_250 embedding_251 embedding_252 embedding_253 embedding_254 embedding_255 embedding_256 embedding_257 embedding_258 embedding_259 embedding_260 embedding_261 embedding_262 embedding_263 embedding_264 embedding_265 embedding_266 embedding_267 embedding_268 embedding_269 embedding_270 embedding_271 embedding_272 embedding_273 embedding_274 embedding_275 embedding_276 embedding_277 embedding_278 embedding_279 embedding_280 embedding_281 embedding_282 embedding_283 embedding_284 embedding_285 embedding_286 embedding_287 embedding_288 embedding_289 embedding_290 embedding_291 embedding_292 embedding_293 embedding_294 embedding_295 embedding_296 embedding_297 embedding_298 embedding_299 embedding_300 embedding_301 embedding_302 embedding_303 embedding_304 embedding_305 embedding_306 embedding_307 embedding_308 embedding_309 embedding_310 embedding_311
feature_infos=[0:1] [5.223140495867769:9.4157303370786511] [0.3396825396825397:0.97674418604651159] [0.00028991793236197668:0.99426620075176675] [0.00028825376239707796:0.99052383984786196] [0.00028991080617172773:0.93981972048024676] [0.00028825363324616582:0.99328211284452228] [0.00028824851339944276:0.99411659774691019] [0.00028824021384421094:0.99430177828804844] [0.00029501777977101871:0.99601671001913106] [0.00028826570245319349:0.9926219740200779] [0.00028825834004921302:0.9931803137556432] [0.00033011427369094475:0.99502659112731406] [0:0.099990905996143201] [0:0.2200067590678981] [0:0.23767767974773046] [0:0.29400290041180444] [0:0.20529411578926185] [0:0.21920433450293417] [0:0.23677064090389485] [0:0.29494619435827779] [0:0.36420702840909175] [0:0.29775345661666042] [-0.16103307902812958:0.16534912586212158] [-0.19723315536975861:0.15037313103675842] [-0.12549391388893127:0.13988108932971954] [-0.16722977161407471:0.14442723989486694] [-0.12477520108222961:0.15789543092250824] [-0.13456271588802338:0.14717143774032593] [-0.17805939912796021:0.13311618566513062] [-0.1499735563993454:0.14032334089279175] [-0.18561884760856628:0.149587482213974] [-0.14249354600906372:0.16996710002422333] [-0.15690056979656219:0.16658557951450348] [-0.17633579671382904:0.12074209004640579] [-0.11273133754730225:0.13978703320026398] [-0.12320861220359802:0.16837237775325775] [-0.090150803327560425:0.16588091850280762] [-0.13016650080680847:0.13462582230567932] [-0.13404481112957001:0.16795632243156433] [-0.11783330887556076:0.18423466384410858] [-0.13286764919757843:0.15016305446624756] [-0.11171337962150574:0.18863919377326965] [-0.14533716440200806:0.12541784346103668] [-0.16837053000926971:0.11771947145462036] [-0.12281014025211334:0.16512104868888855] [-0.16351942718029022:0.12208746373653412] [-0.16126011312007904:0.16466933488845825] [-0.15435348451137543:0.10636062920093536] [-0.092834219336509705:0.15788944065570831] [-0.14904764294624329:0.20282068848609924] [-0.094767563045024872:0.21015273034572601] [-0.16646632552146912:0.14520038664340973] [-0.1271892637014389:0.15739013254642487] [-0.078239083290100098:0.17354494333267212] [-0.20216089487075806:0.11990945786237717] [-0.15527915954589844:0.14210446178913116] [-0.067573070526123047:0.21992310881614685] [-0.14522939920425415:0.11269859224557877] [-0.17689238488674164:0.14065079391002655] [-0.12999668717384338:0.16327798366546631] [-0.13986928761005402:0.10243076831102371] [-0.12374476343393326:0.16217932105064392] [-0.17122729122638702:0.12786237895488739] [-0.096477843821048737:0.19990651309490204] [-0.14696408808231354:0.1569431871175766] [-0.14127500355243683:0.17432744801044464] [-0.081780686974525452:0.16604405641555786] [-0.078202366828918457:0.16532766819000244] [-0.19869211316108704:0.1025456115603447] [-0.039143707603216171:0.22543224692344666] [-0.15452376008033752:0.15842032432556152] [-0.097941428422927856:0.19234777987003326] [-0.15836723148822784:0.16728459298610687] [-0.16347101330757141:0.14772354066371918] [-0.15749557316303253:0.10579164326190948] [-0.15314312279224396:0.20901776850223541] [-0.13359850645065308:0.14693944156169891] [-0.1144750788807869:0.11299817264080048] [-0.13874918222427368:0.13836425542831421] [-0.14813670516014099:0.087502375245094299] [-0.21450211107730865:0.077950328588485718] [-0.13524790108203888:0.17187654972076416] [-0.079828381538391113:0.19009719789028168] [-0.15031836926937103:0.13875341415405273] [-0.18554271757602692:0.12665976583957672] [-0.14371159672737122:0.11692109704017639] [-0.18182171881198883:0.079311847686767578] [-0.20694305002689362:0.059771306812763214] [-0.1097133606672287:0.16403569281101227] [-0.1686939150094986:0.1813436895608902] [-0.13697971403598785:0.19359074532985687] [-0.11976052820682526:0.20547603070735931] [-0.14816166460514069:0.16125169396400452] [-0.11850752681493759:0.17008259892463684] [-0.16973976790904999:0.1223829984664917] [-0.093745261430740356:0.16011227667331696] [-0.16126765310764313:0.18779602646827698] [-0.17682789266109467:0.11595170944929123] [-0.14948076009750366:0.12076368182897568] [-0.17834863066673279:0.16030079126358032] [-0.13919810950756073:0.16577278077602386] [-0.20266108214855194:0.1660008430480957] [-0.1481645256280899:0.12057885527610779] [-0.12780986726284027:0.15513542294502258] [-0.16385984420776367:0.1521822065114975] [-0.2250010073184967:0.06484898179769516] [-0.15923450887203217:0.14460712671279907] [-0.10290010273456573:0.18592755496501923] [-0.12681302428245544:0.16964757442474365] [-0.17211304605007172:0.13772599399089813] [-0.10555399954319:0.15529012680053711] [-0.13554634153842926:0.15733323991298676] [-0.11695180833339691:0.14177684485912323] [-0.17688141763210297:0.14503541588783264] [-0.12390992045402527:0.14649853110313416] [-0.1052572950720787:0.22788271307945251] [-0.13039083778858185:0.13935515284538269] [-0.083832286298274994:0.19972062110900879] [-0.13731032609939575:0.16353513300418854] [-0.15603466331958771:0.12944303452968597] [-0.099860362708568573:0.15304023027420044] [-0.12892867624759674:0.18617779016494751] [-0.11757631599903107:0.21440356969833374] [-0.081729762256145477:0.17673416435718536] [-0.087966933846473694:0.21998028457164764] [-0.15529254078865051:0.18901742994785309] [-0.17263993620872498:0.16904224455356598] [-0.20432978868484497:0.14197368919849396] [-0.12294486910104752:0.17191547155380249] [-0.13231965899467468:0.16785874962806702] [-0.23879268765449524:0.06803710013628006] [-0.12946577370166779:0.19801759719848633] [-0.2179989367723465:0.078030318021774292] [-0.14421521127223969:0.1573459804058075] [-0.033720161765813828:0.25315633416175842] [-0.18399688601493835:0.18082377314567566] [-0.11760558187961578:0.1610756516456604] [-0.092484772205352783:0.17695619165897369] [-0.148293137550354:0.18233504891395569] [-0.080283395946025848:0.16358374059200287] [-0.1001642644405365:0.18086597323417664] [-0.13147082924842834:0.14868925511837006] [-0.14262548089027405:0.13969480991363525] [-0.14892831444740295:0.14802183210849762] [-0.14102552831172943:0.13010023534297943] [-0.13720785081386566:0.10324036329984665] [-0.12239857017993927:0.16073107719421387] [-0.093152210116386414:0.22344078123569489] [-0.15830282866954803:0.15207852423191071] [-0.19115950167179108:0.1242268905043602] [-0.11516743153333664:0.16837306320667267] [-0.13247177004814148:0.15381373465061188] [-0.14388306438922882:0.12416746467351913] [-0.14435459673404694:0.1776900589466095] [-0.083763681352138519:0.2273300439119339] [-0.14771132171154022:0.14556041359901428] [-0.16729311645030975:0.11497226357460022] [-0.14207655191421509:0.17785137891769409] [-0.13857465982437134:0.14425508677959442] [-0.12042257189750671:0.22199492156505585] [-0.15304248034954071:0.1581936776638031] [-0.071461282670497894:0.19270457327365875] [-0.12454823404550552:0.173471599817276] [-0.16465453803539276:0.149624302983284] [-0.16531327366828918:0.19117967784404755] [-0.14071482419967651:0.1328885555267334] [-0.13111996650695801:0.17601719498634338] [-0.17799851298332214:0.11741358786821365] [-0.12147793173789978:0.18296292424201965] [-0.15064132213592529:0.18514043092727661] [-0.11948443204164505:0.13684533536434174] [-0.19049094617366791:0.099997490644454956] [-0.080140799283981323:0.22725264728069305] [-0.11128993332386017:0.14146913588047028] [-0.11725760996341705:0.1555982381105423] [-0.097038708627223969:0.18278607726097107] [-0.17498244345188141:0.11884839087724686] [-0.11473096907138824:0.1410067230463028] [-0.11866901814937592:0.16104097664356232] [-0.12124671787023544:0.20805798470973969] [-0.12400031089782715:0.14597730338573456] [-0.12975582480430603:0.15101462602615356] [-0.11451508849859238:0.15920783579349518] [-0.10019402951002121:0.18994690477848053] [-0.14472952485084534:0.1871303915977478] [-0.097339294850826263:0.17205704748630524] [-0.11671806871891022:0.1835344135761261] [-0.1129254475235939:0.2477814108133316] [-0.15332180261611938:0.134869784116745] [-0.094550147652626038:0.20230241119861603] [-0.1261344701051712:0.16724316775798798] [-0.10859613120555878:0.17971736192703247] [-0.10699362307786942:0.16788919270038605] [-0.10761933773756027:0.15823116898536682] [-0.11035028845071793:0.23302488029003143] [-0.17222338914871216:0.10457611083984375] [-0.081967301666736603:0.21189182996749878] [-0.17374946177005768:0.087339498102664948] [-0.15062229335308075:0.12337350100278854] [-0.094951555132865906:0.15908373892307281] [-0.18171486258506775:0.15243391692638397] [-0.057020988315343857:0.2186167985200882] [-0.18342235684394836:0.1831834614276886] [-0.1337549090385437:0.14125803112983704] [-0.21321973204612732:0.19785478711128235] [-0.18650928139686584:0.12772949039936066] [-0.10335300117731094:0.14460213482379913] [-0.16602492332458496:0.15969444811344147] [-0.14224007725715637:0.18184266984462738] [-0.10809515416622162:0.11972871422767639] [-0.087702639400959015:0.2479727566242218] [-0.16406700015068054:0.15707525610923767] [-0.10639165341854095:0.18752701580524445] [-0.05383087694644928:0.20451287925243378] [-0.13329735398292542:0.12742871046066284] [-0.15264946222305298:0.19385112822055817] [-0.082191161811351776:0.18457485735416412] [0.062084771692752838:0.10820949822664261] [-0.095563225448131561:0.14698997139930725] [-0.13419194519519806:0.22949302196502686] [-0.10167671740055084:0.18814457952976227] [-0.1311749666929245:0.21535438299179077] [-0.14077816903591156:0.17030021548271179] [-0.14041683077812195:0.12565934658050537] [-0.13398610055446625:0.19451506435871124] [-0.16609399020671844:0.14564597606658936] [-0.062140684574842453:0.20948269963264465] [-0.11640267074108124:0.14847303926944733] [-0.067020393908023834:0.20607371628284454] [-0.11554301530122757:0.19521147012710571] [-0.095592185854911804:0.1768602728843689] [-0.15250052511692047:0.15309345722198486] [-0.13263982534408569:0.13449883460998535] [-0.14451761543750763:0.13281336426734924] [-0.12937429547309875:0.20384235680103302] [-0.14511828124523163:0.17740370333194733] [-0.14923082292079926:0.19419626891613007] [-0.12083646655082703:0.1619466096162796] [-0.15777966380119324:0.10792681574821472] [-0.12572893500328064:0.2125895619392395] [-0.15521992743015289:0.11560742557048798] [-0.11421354115009308:0.17948852479457855] [-0.14901658892631531:0.14133369922637939] [-0.18355010449886322:0.11071620881557465] [-0.13201466202735901:0.14154383540153503] [-0.20660015940666199:0.19240033626556396] [-0.1234414204955101:0.18244665861129761] [-0.11372612416744232:0.18932130932807922] [-0.10433511435985565:0.19561348855495453] [-0.13906902074813843:0.1390698254108429] [-0.13656595349311829:0.17739264667034149] [-0.1056009829044342:0.20635747909545898] [-0.1296219527721405:0.17716018855571747] [-0.13682475686073303:0.15189467370510101] [-0.15491397678852081:0.14261502027511597] [-0.16644516587257385:0.16391152143478394] [-0.15515336394309998:0.17481501400470734] [-0.10931751132011414:0.19509111344814301] [-0.10539917647838593:0.21247933804988861] [-0.11577101796865463:0.17715443670749664] [-0.15252424776554108:0.15852129459381104] [-0.17496415972709656:0.12496837973594666] [-0.14629699289798737:0.14568342268466949] [-0.092739202082157135:0.19428768754005432] [-0.17194256186485291:0.15028303861618042] [-0.10570906102657318:0.20258910953998566] [-0.18215058743953705:0.14360681176185608] [-0.054507650434970856:0.22219102084636688] [-0.12985807657241821:0.15707306563854218] [-0.11924433708190918:0.16419915854930878] [-0.10911522060632706:0.17000406980514526] [-0.20095713436603546:0.14329005777835846] [-0.1987593024969101:0.11119460314512253] [-0.14291778206825256:0.17002366483211517] [-0.093362897634506226:0.22908242046833038] [-0.094857066869735718:0.17211818695068359] [-0.11995520442724228:0.2334592193365097] [-0.15202252566814423:0.12941429018974304] [-0.089622572064399719:0.17365168035030365] [-0.14526131749153137:0.13815368711948395] [-0.11866290867328644:0.17646624147891998] [-0.15781973302364349:0.17908160388469696] [-0.093068405985832214:0.15380775928497314] [-0.14575865864753723:0.15359748899936676] [-0.1298743337392807:0.19562779366970062] [-0.15337535738945007:0.11920913308858871] [-0.19714860618114471:0.12940004467964172] [-0.1393231600522995:0.14812387526035309] [-0.093647763133049011:0.15764690935611725] [-0.1609330028295517:0.13715353608131409] [-0.099658019840717316:0.1703948974609375] [-0.11469689756631851:0.1545439213514328] [-0.11006259918212891:0.21071131527423859] [-0.18504481017589569:0.15459130704402924] [-0.17719325423240662:0.14407260715961456] [-0.15829528868198395:0.13150107860565186] [-0.1365855485200882:0.13347359001636505] [-0.15592832863330841:0.11771229654550552] [-0.119296595454216:0.17248740792274475] [-0.12020125240087509:0.1567547470331192] [-0.13008584082126617:0.16062599420547485] [-0.1290707141160965:0.14580452442169189] [-0.11061248928308487:0.18564455211162567] [-0.096769742667675018:0.22839951515197754] [-0.056427154690027237:0.23771725594997406] [-0.16314390301704407:0.15459254384040833] [-0.14571933448314667:0.20071175694465637] [-0.15140426158905029:0.15070846676826477] [-0.16175343096256256:0.17957703769207001] [-0.13261102139949799:0.1686539500951767] [-0.15147610008716583:0.11154034733772278] [-0.11760128289461136:0.14872518181800842] [-0.18425984680652618:0.14244231581687927] [-0.13800199329853058:0.16578005254268646] [-0.152225062251091:0.15161406993865967] [-0.11241647601127625:0.18583075702190399] [-0.1185850128531456:0.16354566812515259] [-0.16215233504772186:0.13503988087177277] [-0.10669278353452682:0.16129022836685181] [-0.15256376564502716:0.14185115694999695] [-0.1585785299539566:0.1274675726890564] [-0.15488319098949432:0.16075557470321655] [-0.16915935277938843:0.159839928150177] [-0.13865070044994354:0.14557461440563202] [-0.10408824682235718:0.21272017061710358] [-0.12059670686721802:0.16837389767169952] [-0.12389905005693436:0.15961992740631104] [-0.11729176342487335:0.21131449937820435] [-0.091622039675712585:0.1878570169210434] [-0.13913819193840027:0.15145485103130341] [-0.13092434406280518:0.14238472282886505] [-0.15272457897663116:0.1269695907831192] [-0.14300532639026642:0.173841193318367] [-0.084571912884712219:0.19184249639511108]
tree_sizes=2699 2815 2829 2826 2833 2832 2836 2823 2825 2830 2830 2826 2820 2824 2823 2826 2831 2823 2821 2836 2841 2819 2824 2826 2821 2817 2819 2821 2822 2835 2826 2821 2832 2827 2838 2813 2832 2842 2827 2834 2827 2824 2826 2812 2839 2819 2829 2818 2827 2825 2825 2839 2833 2820 2844 2828 2838 2835 2828 2845 2827 2825 2828 2843 2825 2833 2833 2830 2832 2836 2824 2843 2846 2824 2833 2838 2823 2853 2839 2827 2847 2827 2838 2835 2828 2832 2840 2850 2830 2843 2827 2840 2842 2847 2838 2845 2841 2832 2841 2840 2837 2845 2831 2840 2827 2841 2846 2843 2850 2827 2836 2846 2841 2849 2832 2852 2828 2853 2847 2836 2840 2840 2835 2854 2827 2839 2837 2840 2837 2839 2847 2848 2832 2844 2832 2837 2845 2835 2849 2840 2843 2827 2846 2842 2843 2841 2827 2835 2842 2829 2833 2839 2840 2840 2843 2844 2846 2839 2830 2835 2834 2847 2832 2834 2849 2849 2831 2847 2845 2843 2841 2835 2841 2831 2846 2848 2852 2840 2853 2837 2843 2854 2843 2836 2845 2843 2842 2859 2848 2845 2844 2847 2856 2854 2841 2842 2856 2853 2857 2845 2854 2849 2841 2854 2845 2836 2853 2840 2851 2853 2856 2860 2858 2853 2845 2840 2862 2855 2833 2856 2844 2845 2856 2838 2853 2851 2838 2855 2848 2858 2859 2846 2860 2855 2844 2853 2840 2851 2857 2850 2852 2857 2857 2853 2856 2864 2842 2848 2842 2852 2855 2859 2861 2836 2847 2867 2845 2849 2841 2857 2861 2829 2863 2862 2856 2842 2844 2850 2839 2859 2865 2835 2849 2858 2866 2851 2851 2862 2865 2838 2846 2859 2856 2855 2854 2846 2874 2860 2875 2847 2851 2852 2871 2860 2854 2864 2865 2853 2859 2864 2849 2875 2859 2849 2847 2857 2867 2856 2837 2851 2851 2844 2842 2859 2860 2860 2866 2862 2853 2854 2860 2855 2863 2861 2851 2848 2873 2861 2867 2855 2861 2866 2871 2863 2873 2870 2843 2854 2863 2853 2869 2865 2860 2872 2866 2862 2859 2861 2847 2856 2876 2859 2859 2870 2846 2857 2861 2848 2867 2853 2860 2859 2850 2856 2864 2863 2861 2883 2856 2850 2867 2860 2852 2854 2841 2862 2872 2847 2855 2855 2851 2872 2871 2865 2868 2882 2850 2865 2869 2864 2852 2878 2858 2872 2856 2837 2865 2864 2848 2858 2875 2878 2872 2859 2862 2862 2874 2855 2864 2880 2868 2870 2863 2869 2867 2889 2845 2874 2867 2870 2890 2868 2867 2877 2868 2849 2870 2888 2878 2875 2870 2876 2859 2858 2875 2880 2869 2872 2872 2877 2862 2863 2867 2873 2857 2863 2883 2874 2875 2875 2859 2878 2857 2866 2865 2869 2866 2869 2855 2860 2861 2879 2869 2881 2868 2864 2873 2891 2882 2872 2872 2859 2867 2868 2870 2885 2878 2883 2867 2872 2878 2867 2877 2876 2876 2874 2861 2872 2861 2880 2852 2873 2872 2866 2874 2867 2882 2886 2896 2865 2886 2888 2869 2846 2884 2878 2875 2869 2882 2898 2867 2886 2867 2872 2877 2857 2867 2882 2875 2869 2872 2899 2870 2881 2866 2881 2874 2878 2848 2881 2887 2866 2880 2868 2877 2879 2880 2891 2876 2872 2876 2876 2876 2873 2878 2890 2862 2870 2883 2891 2879 2871 2891 2872 2875 2884 2881 2887 2867 2874 2881 2878 2863 2883 2866 2880 2878 2874 2870 2893 2869 2891 2879 2871 2877 2875 2874 2880 2892 2887 2888 2874 2881 2872 2867 2881 2877 2885 2894 2888 2876 2881 2891 2863 2886 2878 2887 2888 2875 2875 2894 2870 2888 2871 2885 2882 2853 2863 2879 2883 2896 2865 2869 2910 2882 2890 2859 2868 2887 2897 2883 2896 2881 2885 2897 2859 2895 2861 2897 2891 2875 2886 2862 2890 2889 2875 2890 2872 2890 2886 2881 2897 2873 2882 2887 2878 2901 2865 2892 2887 2894 2899 2869 2864 2876 2887 2887 2885 2875 2892 2895 2881 2877 2893 2896 2873 2891 2884 2870 2883 2888 2907 2889 2864 2884 2899 2885 2874 2885 2883 2895 2876 2883 2879 2904 2884 2882 2874 2864 2880 2878 2877 2878 2893 2883 2882 2895 2866 2865 2884 2891 2879 2904 2892 2878 2885 2906 2885 2883 2888 2874 2884 2872 2880 2876 2880 2876 2884 2873 2871 2893 2886 2888 2876 2904 2874 2898 2893 2896 2889 2881 2899 2889 2890 2888 2879 2885 2890 2886 2865 2888 2872 2900 2898 2884 2890 2885 2884 2882 2883 2877 2894 2908 2859 2891 2869 2897 2897 2907 2895 2879 2873 2891 2882 2888 2884 2878 2890 2891 2899 2851 2901 2892 2896 2883 2891 2887 2898 2906 2908 2891 2902 2896 2906 2891 2881 2875 2888 2896 2897 2888 2888 2874 2888 2886 2886 2865 2880 2883 2900 2894 2881 2895 2899 2889 2874 2893 2907 2880 2901 2866 2887 2881 2876 2881 2890 2896 2872 2896 2885 2894 2886 2885 2896 2900 2884 2902 2870 2901 2882 2872 2887 2890 2887 2881 2876 2898 2883 2898 2890 2881 2889 2905 2883 2868 2876 2878 2916 2896 2879 2895 2891 2888 2865 2888 2891 2902 2895 2905 2886 2876 2884 2868 2897 2888 2887 2890 2891 2898 2880 2912 2904 2914 2893 2886 2894 2880 2867 2875 2892 2871 2902 2890 2899 2870 2885 2886 2896 2886 2892 2900 2890 2874 2869 2862 2878 2885 2884 2888 2874 2886 2890 2886 2893 2890 2900 2892 2898 2875 2875 2905 2860 2896 2907 2898 2880 2900 2898 2898 2877 2889 2884 2877 2895 2867 2917 2896 2879 2895 2901 2898 2887 2881 2885 2900 2873 2878 2877 2885 2872 2901 2885 2883 2890 2896 2889 2884 2910 2886 2917 2877 2883 2894 2887 2914 2903 2911 2874 2864 2889 2900 2883 2902 2876 2900 2903 2901 2889 2903 2916 2901 2896 2881 2898 2896 2886 2890 2892 2887 2896 2890 2876 2880 2888 2896 2873 2880 2887 2880 2877 2872 2894 2894 2892 2894 2876 2887 2884 2888 2875

Tree=0
num_leaves=31
num_cat=0
split_feature=174 142 51 268 276 303 170 272 246 31 154 3 7 168 222 81 77 278 212 245 143 29 287 288 67 248 285 57 82 207
split_gain=173541 118681 79735.6 54213.2 50363.6 48296.9 46070.2 44177.1 42424.7 41251.1 40694.6 35670.8 34850.4 34304.2 33113.8 33090.1 28872.8 34457.4 32521.8 28077 27097.8 26906.4 25786.1 28460.8 25459.5 25443 24385 25560.8 24319.2 23376.5
threshold=0.028943041339516643 0.052064815536141403 -0.027489900588989254 0.074577942490577712 0.0088074957020580786 0.020389222539961342 0.048378819599747665 -0.038313627243041985 -0.019530512392520901 0.028035655617713932 0.035193525254726417 0.01993537054001783 0.14190127440934466 -0.05461295694112777 0.025617270730435852 -0.05621706880629062 0.0020958048989996318 -0.0031827385537326332 -0.029894515872001644 0.021140382625162605 -0.031540779396891587 -0.00070868656621314574 -0.073018174618482576 0.069584861397743239 0.068424593657255187 -0.0028721161652356382 0.018158421851694587 0.064038768410682692 0.02594652678817511 0.0060263257473707208
decision_type=2 2 2 2 2 2 2 2 2 2 2 2 2 2 2 2 2 2 2 2 2 2 2 2 2 2 2 2 2 2
left_child=1 2 8 9 15 6 13 29 -1 -3 16 20 14 -6 -8 28 17 25 -18 -11 -12 -10 -15 -24 -9 -2 -26 -28 -4 -7
right_child=10 3 4 -5 5 7 12 24 21 19 11 -13 -14 22 -16 -17 18 -19 -20 -21 -22 -23 23 -25 26 -27 27 -29 -30 -31
leaf_value=12.713474293572562 13.66051000658671 13.32295760701802 12.79226633537872 13.491839369925241 13.454995299395392 12.81747429224423 13.282054121802835 13.279474287850517 13.326560005950927 13.157871113812481 12.995673047438911 12.857669100241228 13.068426669756573 13.384863451464422 13.584876888671479 13.162194785463637 13.569396369587292 13.67176000613258 13.291368941600096 12.71926000738144 13.383069526422592 12.852629570836607 13.011337469181544 13.414260005950927 13.265877649812138 13.275260003884634 13.135990772027236 12.683426675240199 13.139908148730242 13.062147601415944
leaf_weight=70 24 167 79 126 34 56 68 140 25 54 23 22 30 29 77 69 55 84 179 20 84 23 142 20 34 60 26 24 27 129
leaf_count=70 24 167 79 126 34 56 68 140 25 54 23 22 30 29 77 69 55 84 179 20 84 23 142 20 34 60 26 24 27 129
internal_value=13.224 13.168 13.1161 13.3237 13.1456 13.1789 13.257 13.1024 12.8705 13.2359 13.3789 13.2244 13.3787 13.1623 13.4429 12.9918 13.4285 13.5285 13.3567 13.0393 13.2998 13.0995 13.1102 13.0611 13.1969 13.3853 13.0593 12.9188 12.8808 12.9881
internal_weight=2000 1469 1102 367 984 809 400 409 118 241 531 129 175 225 145 175 402 168 234 74 107 48 191 162 224 84 84 50 106 185
internal_count=2000 1469 1102 367 984 809 400 409 118 241 531 129 175 225 145 175 402 168 234 74 107 48 191 162 224 84 84 50 106 185
is_linear=0
shrinkage=1


Tree=1
num_leaves=31
num_cat=0
split_feature=174 142 51 268 276 303 170 272 246 31 154 3 7 168 222 81 77 278 212 245 143 29 287 288 67 248 285 57 82 149
split_gain=170088 116320 78148.9 53134.3 49361.4 47335.8 45153.4 43298 41580.4 40430.2 39884.8 34961 34156.9 33621.6 32454.8 32431.6 28298.3 33771.7 31874.7 27518.3 26558.6 26371 25273 27894.4 24952.9 24936.7 23899.8 25052.2 23835.2 23050.4
threshold=0.028943041339516643 0.052064815536141403 -0.027489900588989254 0.074577942490577712 0.0088074957020580786 0.020389222539961342 0.048378819599747665 -0.038313627243041985 -0.019530512392520901 0.028035655617713932 0.035193525254726417 0.01993537054001783 0.14190127440934466 -0.05461295694112777 0.025617270730435852 -0.05621706880629062 0.0020958048989996318 -0.0031827385537326332 -0.029894515872001644 0.021140382625162605 -0.031540779396891587 -0.00070868656621314574 -0.073018174618482576 0.069584861397743239 0.068424593657255187 -0.0028721161652356382 0.018158421851694587 0.064038768410682692 0.02594652678817511 0.01266579329967499
decision_type=2 2 2 2 2 2 2 2 2 2 2 2 2 2 2 2 2 2 2 2 2 2 2 2 2 2 2 2 2 2
left_child=1 2 8 9 15 6 13 29 -1 -3 16 20 14 -6 -8 28 17 25 -18 -11 -12 -10 -15 -24 -9 -2 -26 -28 -4 -7
right_child=10 3 4 -5 5 7 12 24 21 19 11 -13 -14 22 -16 -17 18 -19 -20 -21 -22 -23 23 -25 26 -27 27 -29 -30 -31
leaf_value=-0.50542047609601704 0.43214489301045739 0.097968030468432485 -0.42741633735125578 0.2651609697039165 0.22868534747292013 -0.1665554807817235 0.057473576068878172 0.054919538361685616 0.10153439407348634 -0.065467596782578366 -0.2260436917387921 -0.36266758441925051 -0.15401760633786521 0.15925480715159712 0.35726811309913536 -0.061187161500903149 0.3419423964240334 0.44328239588510421 0.066695247788669004 -0.49969260919094083 0.15747883217675346 -0.36765673678854233 -0.21053590828264263 0.18835739421844483 0.04145887420457952 0.050747396310170494 -0.087129140037756694 -0.53516759355862942 -0.083250930706659954 -0.41951860048332995
leaf_weight=70 24 167 79 126 34 136 68 140 25 54 23 22 30 29 77 69 55 84 179 20 84 23 142 20 34 60 26 24 27 49
leaf_count=70 24 167 79 126 34 136 68 140 25 54 23 22 30 29 77 69 55 84 179 20 84 23 142 20 34 60 26 24 27 49
internal_value=-1.75357e-09 -0.0554444 -0.106796 0.0987516 -0.0776347 -0.0446934 0.0326551 -0.12034 -0.349976 0.0117492 0.153386 0.000391706 0.153128 -0.0610456 0.216675 -0.229918 0.202481 0.3015 0.13139 -0.182826 0.0750394 -0.123286 -0.112621 -0.16129 -0.026835 0.159718 -0.163093 -0.302188 -0.339752 -0.233557
internal_weight=2000 1469 1102 367 984 809 400 409 118 241 531 129 175 225 145 175 402 168 234 74 107 48 191 162 224 84 84 50 106 185
internal_count=2000 1469 1102 367 984 809 400 409 118 241 531 129 175 225 145 175 402 168 234 74 107 48 191 162 224 84 84 50 106 185
is_linear=0
shrinkage=0.01


Tree=2
num_leaves=31
num_cat=0
split_feature=174 142 51 268 276 303 170 272 246 31 154 3 205 168 81 295 77 278 212 245 271 29 287 288 67 248 70 285 57 260
split_gain=166703 114005 76593.7 52076.9 48379.1 46393.8 44254.9 42436.4 40753 39625.6 39091.1 34265.3 33568.8 32952.5 31786.2 28107.3 27735.1 33099.6 31240.4 26970.7 26369.4 25846.2 24770.1 27339.3 24456.3 24440.5 23704.8 23424.1 24553.6 22927
threshold=0.028943041339516643 0.052064815536141403 -0.027489900588989254 0.074577942490577712 0.0088074957020580786 0.020389222539961342 0.048378819599747665 -0.038313627243041985 -0.019530512392520901 0.028035655617713932 0.035193525254726417 0.01993537054001783 -0.046919479966163628 -0.05461295694112777 -0.05621706880629062 -0.040505798533558839 0.0020958048989996318 -0.0031827385537326332 -0.029894515872001644 0.021140382625162605 0.020379098132252697 -0.00070868656621314574 -0.073018174618482576 0.069584861397743239 0.068424593657255187 -0.0028721161652356382 0.10697467252612115 0.018158421851694587 0.064038768410682692 0.032743860036134727
decision_type=2 2 2 2 2 2 2 2 2 2 2 2 2 2 2 2 2 2 2 2 2 2 2 2 2 2 2 2 2 2
left_child=1 2 8 9 14 6 13 -7 -1 -3 16 20 -8 -6 26 -14 17 25 -18 -11 -12 -10 -15 -24 -9 -2 -4 -26 -29 -5
right_child=10 3 4 29 5 7 12 24 21 19 11 -13 15 22 -16 -17 18 -19 -20 -21 -22 -23 23 -25 27 -27 -28 28 -30 -31
leaf_value=-0.50036625027656556 0.4278234483053287 0.096988347561773436 -0.43911754909488893 0.34616626019006247 0.22639848421601688 -0.23122095062926007 -0.17995873309098759 0.054370351195335384 0.1005190637588501 -0.064812927356472719 -0.12100546308926173 -0.35904093612324112 -0.048055159431515317 0.15766226764382987 -0.060575298330058223 0.28270770229142289 0.33852297557484023 0.43884956743036002 0.066028300077555557 -0.49469566583633423 0.20047928259922909 -0.36398015447284865 -0.20843055080360093 0.18647381687164305 0.041044286138871143 0.050239925225575764 -0.11873723138781156 -0.086257847043184135 -0.52981593092282619 0.045001424687249318
leaf_weight=70 24 167 72 91 34 185 26 140 25 54 42 22 33 29 69 116 55 84 179 20 65 23 142 20 34 60 34 26 24 35
leaf_count=70 24 167 72 91 34 185 26 140 25 54 42 22 33 29 69 116 55 84 179 20 65 23 142 20 34 60 34 26 24 35
internal_value=-7.42972e-10 -0.05489 -0.105728 0.0977641 -0.0768583 -0.0442464 0.0323286 -0.119136 -0.346476 0.0116317 0.151852 0.000387778 0.151596 -0.0604351 -0.227618 0.209451 0.200456 0.298485 0.130076 -0.180997 0.074289 -0.122053 -0.111495 -0.159677 -0.0265667 0.158121 -0.336354 -0.161462 -0.299166 0.262509
internal_weight=2000 1469 1102 367 984 809 400 409 118 241 531 129 175 225 175 149 402 168 234 74 107 48 191 162 224 84 106 84 50 126
internal_count=2000 1469 1102 367 984 809 400 409 118 241 531 129 175 225 175 149 402 168 234 74 107 48 191 162 224 84 106 84 50 126
is_linear=0
shrinkage=0.01


Tree=3
num_leaves=31
num_cat=0
split_feature=174 142 51 268 276 303 170 272 246 31 154 3 7 168 189 222 81 278 94 287 21 143 29 287 288 67 111 285 57 207
split_gain=163386 111736 75069.5 51040.6 47416.3 45470.5 43374.2 41591.9 39942 38922.6 38313.2 33583.4 33319.6 32296.7 32180.4 31658.4 31153.6 27199.8 27154 26648.8 26963.5 25982 25331.9 24277.1 26795.2 23969.6 23469.4 22958 24065 22872.5
threshold=0.028943041339516643 0.052064815536141403 -0.027489900588989254 0.074577942490577712 0.0088074957020580786 0.020389222539961342 0.048378819599747665 -0.038313627243041985 -0.019530512392520901 0.031919190660119064 0.035193525254726417 0.01993537054001783 0.14190127440934466 -0.05461295694112777 -0.047266423702239983 0.025617270730435852 -0.05621706880629062 -0.031825343146920197 -0.016380012966692444 -0.020925560966134068 0.0032831866021263687 -0.031540779396891587 -0.00070868656621314574 -0.073018174618482576 0.069584861397743239 0.068424593657255187 0.039441198110580451 0.018158421851694587 0.064038768410682692 0.0060263257473707208
decision_type=2 2 2 2 2 2 2 2 2 2 2 2 2 2 2 2 2 2 2 2 2 2 2 2 2 2 2 2 2 2
left_child=1 2 8 9 16 6 13 29 -1 18 17 21 15 -6 -11 -8 26 -2 -3 -19 -21 -12 -10 -15 -25 -9 -4 -27 -29 -7
right_child=10 3 4 -5 5 7 12 25 22 14 11 -13 -14 23 -16 -17 -18 19 -20 20 -22 -23 -24 24 -26 27 -28 28 -30 -31
leaf_value=-0.49536258816719059 0.060995916085985473 0.26478250398474223 -0.41131965239363977 0.25988426115777757 0.22413449722177842 -0.39766959582056316 0.055608011869823233 0.053826645902224954 0.099513867044448867 -0.46849411372955035 -0.22425050714741585 -0.35545052831823176 -0.15327662654717764 0.15608563628689998 -0.018761059016716191 0.35170139086710939 -0.059969538778498553 0.10297051804119281 0.00089646648324054226 0.38624448135182576 0.13929086362011731 0.15508567651112876 -0.36034037299778149 -0.2063462483043402 0.18460907649993896 0.04063383705475751 -0.050324474469475126 -0.085395267835030195 -0.52451777398586275 -0.15564821764480236
leaf_weight=70 106 59 83 126 34 56 68 140 25 26 23 22 30 29 41 77 69 89 115 143 64 84 23 142 20 34 23 26 24 129
leaf_count=70 106 59 83 126 34 56 68 140 25 26 23 22 30 29 41 77 69 89 115 143 64 84 23 142 20 34 23 26 24 129
internal_value=-4.52846e-10 -0.0543411 -0.104671 0.0967865 -0.0760897 -0.043804 0.0320053 -0.117945 -0.343012 0.0115154 0.150333 0.000383903 0.15008 -0.0598308 -0.193284 0.212844 -0.225342 0.198452 0.0903751 0.247676 0.309892 0.0735461 -0.120833 -0.11038 -0.15808 -0.026301 -0.332991 -0.159847 -0.296174 -0.228909
internal_weight=2000 1469 1102 367 984 809 400 409 118 241 531 129 175 225 67 145 175 402 174 296 207 107 48 191 162 224 106 84 50 185
internal_count=2000 1469 1102 367 984 809 400 409 118 241 531 129 175 225 67 145 175 402 174 296 207 107 48 191 162 224 106 84 50 185
is_linear=0
shrinkage=0.01


Tree=4
num_leaves=31
num_cat=0
split_feature=174 142 51 268 276 266 312 246 31 154 19 272 3 96 325 189 81 114 77 278 212 94 252 271 246 29 303 248 257 170
split_gain=160134 109513 73575.6 50024.9 46492.9 44554.5 46511.8 39147.1 38148 37550.8 36735.9 33568.4 32915.1 32352 33799.3 31540.1 28405.4 28177 27055.8 32174 30552.6 26613.6 26498.4 25797 25561.4 24827.7 24299.3 23935.3 22715.5 22615.6
threshold=0.028943041339516643 0.052064815536141403 -0.027489900588989254 0.074577942490577712 0.014489541761577131 0.10520440340042116 0.044533682987093932 -0.019530512392520901 0.031919190660119064 0.035193525254726417 0.010393909873874492 -0.018281460739672181 0.01993537054001783 0.060157774016261108 0.067821972072124495 -0.047266423702239983 -0.05813681706786155 0.0030068596825003628 0.0020958048989996318 -0.0031827385537326332 -0.029894515872001644 -0.016380012966692444 0.033640224486589439 0.020379098132252697 0.027631208300590519 -0.00070868656621314574 0.028998392634093765 -0.0028721161652356382 0.0087732328101992624 0.0024295852053910498
decision_type=2 2 2 2 2 2 2 2 2 2 2 2 2 2 2 2 2 2 2 2 2 2 2 2 2 2 2 2 2 2
left_child=1 2 7 8 16 6 13 -1 21 18 -7 -8 23 14 22 -10 24 28 19 27 -20 -3 -6 -11 -4 -9 29 -2 -16 -15
right_child=9 3 4 -5 5 10 11 25 15 12 -12 -13 -14 26 17 -17 -18 -19 20 -21 -22 -23 -24 -25 -26 -27 -28 -29 -30 -31
leaf_value=-0.49040897284235274 0.42180098296453561 0.26213467870728446 -0.37561291639250938 0.25728541843001806 -0.18453942003250123 0.35836907869825757 -0.34875818734141917 0.098518722438812253 -0.46380919048419367 -0.12035275754474459 -0.051963655471801762 -0.015410576812599018 -0.35189600857821374 -0.091767414991672236 -0.47107037166186744 -0.018573447611273788 -0.06945997168036068 0.039584072909571909 0.33309381364692342 0.43167603786502567 0.063615456832853773 0.00088750018244204308 0.084683342573835571 0.19762395106829128 0.0084970722312018993 -0.35673694994138638 -0.062245417149861655 0.048140092333157858 -0.17506870434284211 0.24265078067779541
leaf_weight=70 24 59 99 126 50 48 88 25 26 42 40 46 22 26 35 41 85 44 55 84 179 115 136 65 21 23 75 60 100 91
leaf_count=70 24 59 99 126 50 48 88 25 26 42 40 46 22 26 35 41 85 44 55 84 179 115 136 65 21 23 75 60 100 91
internal_value=-5.97537e-10 -0.0537977 -0.103624 0.0958186 -0.0753288 -0.0400671 -0.0670556 -0.339581 0.0114002 0.14883 0.171854 -0.234325 0.000380068 -0.0268147 -0.0820895 -0.191351 -0.209324 -0.180182 0.196467 0.293288 0.126954 0.0894713 0.0123116 0.0728107 -0.308394 -0.119625 0.0782649 0.1549 -0.25181 0.168336
internal_weight=2000 1469 1102 367 984 779 691 118 241 531 88 134 129 557 365 67 205 179 402 168 234 174 186 107 120 48 192 84 135 117
internal_count=2000 1469 1102 367 984 779 691 118 241 531 88 134 129 557 365 67 205 179 402 168 234 174 186 107 120 48 192 84 135 117
is_linear=0
shrinkage=0.01


Tree=5
num_leaves=31
num_cat=0
split_feature=174 142 51 268 283 247 185 20 246 31 154 312 238 3 61 199 27 11 77 212 303 245 278 44 143 29 87 260 116 311
split_gain=156948 107333 72111.5 49029.4 46162 49865.9 56775.7 46933.7 38368.1 37425.8 36803.5 34628.4 33884.7 32260.1 29362.3 28793.8 28022.6 26891 26624.8 28888.9 26317.4 26071.9 25922.4 27844.9 25417.8 24333.7 22582.4 22470.8 21684.8 21323.1
threshold=0.028943041339516643 0.052064815536141403 -0.027489900588989254 0.074577942490577712 -0.0027347566792741414 0.080658409744501128 0.010777128860354425 0.043001740709437013 -0.019530512392520901 0.028035655617713932 0.035193525254726417 0.027736964635550979 0.074356149882078185 0.01993537054001783 -0.013648848980665205 0.026911999098956588 0.044339936226606376 0.00065369887642009598 0.0020958048989996318 -0.029894515872001644 0.0086465580388903635 0.021140382625162605 0.00055051919480320077 -0.018821056932210919 -0.031540779396891587 -0.00070868656621314574 -0.082944590598344789 0.032743860036134727 0.045122461393475539 0.01000678399577737
decision_type=2 2 2 2 2 2 2 2 2 2 2 2 2 2 2 2 2 2 2 2 2 2 2 2 2 2 2 2 2 2
left_child=1 2 8 9 20 6 7 14 -1 28 17 12 15 24 -6 -8 26 -2 22 -20 29 -11 23 -19 -12 -10 -7 -5 -3 -4
right_child=10 3 4 27 5 16 11 -9 25 21 13 -13 -14 -15 -16 -17 -18 18 19 -21 -22 -23 -24 -25 -26 -27 -28 -29 -30 -31
leaf_value=-0.48550487622192928 0.40906735675560091 0.25045321727621145 0.073029853049023402 0.33753290805187852 -0.20195649342364574 -0.13046609947555943 -0.013599565827077435 0.38985052194595343 0.097533535909652705 -0.061687386433283489 -0.22246348121891854 -0.35681432692037113 -0.45049009645686433 -0.34837704051624646 0.087026620692894102 -0.25512620600258434 -0.20006176567077638 0.29528776407241825 0.30806790700935305 0.025871447099829623 -0.034522559982207088 -0.48434637701511385 0.40553603899266039 -0.098023761709531157 0.15273206330481029 -0.35316958883534305 0.14870692829616736 0.039379713875906809 0.011116909554245276 0.40142169312636056
leaf_weight=70 51 58 58 91 83 38 124 25 25 54 23 138 34 22 61 82 45 45 47 159 144 20 70 30 84 23 122 35 109 30
leaf_count=70 51 58 58 91 83 38 124 25 25 54 23 138 34 22 61 82 45 45 47 159 144 20 70 30 84 23 122 35 109 30
internal_value=-4.18433e-10 -0.0532597 -0.102588 0.0948604 -0.0745756 -0.112619 -0.16247 -0.0101036 -0.336186 0.0112862 0.147342 -0.230592 -0.158014 0.000376266 -0.07954 -0.109741 0.0203988 0.194502 0.163326 0.0902561 0.0487376 -0.17592 0.267136 0.137963 0.0720826 -0.118428 0.0824033 0.254713 0.0942397 0.184982
internal_weight=2000 1469 1102 367 984 752 547 169 118 241 531 378 240 129 144 206 205 402 351 206 232 74 145 75 107 48 160 126 167 88
internal_count=2000 1469 1102 367 984 752 547 169 118 241 531 378 240 129 144 206 205 402 351 206 232 74 145 75 107 48 160 126 167 88
is_linear=0
shrinkage=0.01


Tree=6
num_leaves=31
num_cat=0
split_feature=174 142 51 268 266 67 272 312 101 246 31 154 19 294 151 3 189 185 314 309 21 47 137 192 263 179 271 91 7 276
split_gain=153824 105197 70676.5 48053.7 45309.8 54331.5 52157.7 45261.2 38406.8 37604.6 36743.8 36071.1 34296.8 33976 35654.3 31618.1 30697 30455.5 30565.2 29299.9 26605.1 32368.1 28192.2 27443.9 26059.4 25802.7 25237.1 24640.6 24024.3 23323.5
threshold=0.028943041339516643 0.052064815536141403 -0.027489900588989254 0.074577942490577712 0.10520440340042116 0.069496300071477904 -0.02014555316418409 0.048003545030951507 -0.032015737146139138 -0.019530512392520901 0.031919190660119064 0.035193525254726417 0.010393909873874492 -0.036113437265157693 0.017833192832767967 0.01993537054001783 -0.047266423702239983 0.086813982576131835 0.050864931195974357 -0.049288904294371598 0.012086508450988983 0.049792451784014709 0.053327446803450591 0.034938773140311248 0.053450940176844604 0.05332577787339688 0.020379098132252697 -0.0086143836379051191 0.0011907208261467781 0.047202551737427718
decision_type=2 2 2 2 2 2 2 2 2 2 2 2 2 2 2 2 2 2 2 2 2 2 2 2 2 2 2 2 2 2
left_child=1 2 9 10 5 7 27 8 -4 -1 24 20 -6 14 -8 26 -12 18 19 -10 21 22 -2 -22 -3 -19 -13 -7 -11 -20
right_child=11 3 4 -5 12 6 13 -9 17 28 16 15 -14 -15 -16 -17 -18 25 29 -21 23 -23 -24 -25 -26 -27 -28 -29 -30 -31
leaf_value=-0.48064983314275744 0.33981664566146697 0.035345886479429649 0.22492778842487643 0.25216543962321586 0.27281079058685609 -0.074499821588397033 0.42406104521317917 -0.25273740857504728 -0.27853459860416169 0.14746521818637848 -0.45660347800988421 -0.11969389654341198 -0.083235545381903656 -0.28037684895490345 -0.065402571040651072 -0.34489329121329571 -0.017358492467461566 -0.040564841519702563 -0.030431876795632497 -0.0047289421640593432 0.27284982639810312 -0.00014666331826515918 0.13099712243189615 -0.16480544510640596 0.37334544230390476 -0.38708653177533836 0.19481306760127726 -0.38291483653380587 -0.30632216875042234 0.30755858066130659
leaf_weight=70 190 147 62 126 62 32 22 89 47 20 26 42 48 38 46 22 41 44 35 232 23 53 98 38 27 42 65 136 28 49
leaf_count=70 190 147 62 126 62 32 22 89 47 20 26 42 48 38 46 22 41 44 35 232 23 53 98 38 27 42 65 136 28 49
internal_value=-1.29342e-10 -0.0527271 -0.101562 0.0939118 -0.0738298 -0.0979033 -0.214576 -0.0446226 -0.00837564 -0.332824 0.0111734 0.145868 0.117445 -0.040882 0.0929533 0.000372506 -0.187812 -0.0405913 -0.000504094 -0.0508539 0.192557 0.226965 0.26876 0.000212116 0.0877941 -0.209796 0.0713617 -0.324169 -0.117244 0.166729
internal_weight=2000 1469 1102 367 984 874 274 600 511 118 241 531 110 106 68 129 67 449 363 279 402 341 288 61 174 86 107 168 48 84
internal_count=2000 1469 1102 367 984 874 274 600 511 118 241 531 110 106 68 129 67 449 363 279 402 341 288 61 174 86 107 168 48 84
is_linear=0
shrinkage=0.01


Tree=7
num_leaves=31
num_cat=0
split_feature=174 142 51 268 276 303 170 272 246 31 74 149 205 168 81 3 172 295 305 245 29 287 288 67 331 273 70 285 57 149
split_gain=150763 103104 69270 47097.5 44953.3 43184.7 41563.1 39750.1 36856.3 36034 35439.4 36075.2 32261.2 31220 29776.1 28416 27267 26811.5 25424.7 25385.2 23744.9 23297.8 25778.7 22960.2 22958.7 23249.1 22831.8 22366.3 23108.8 22309.1
threshold=0.028943041339516643 0.052064815536141403 -0.027489900588989254 0.074577942490577712 0.0088074957020580786 0.020389222539961342 0.048378819599747665 -0.038313627243041985 -0.019530512392520901 0.028035655617713932 0.0079355398193001764 -0.018813756294548508 -0.046919479966163628 -0.05461295694112777 -0.05621706880629062 0.078716624551176367 -0.089738186448812471 -0.040505798533558839 0.12451558932662012 0.021140382625162605 -0.00070868656621314574 -0.073018174618482576 0.069584861397743239 0.068424593657255187 0.012537902221083643 -0.032617256045341485 0.10697467252612115 0.018158421851694587 0.064038768410682692 0.01266579329967499
decision_type=2 2 2 2 2 2 2 2 2 2 2 2 2 2 2 2 2 2 2 2 2 2 2 2 2 2 2 2 2 2
left_child=1 2 8 9 14 6 13 29 -1 -3 11 18 -8 -6 26 -13 -12 -14 24 -11 -10 -15 -23 -9 25 -2 -4 -25 -29 -7
right_child=10 3 4 -5 5 7 12 23 20 19 16 15 17 21 -16 -17 -18 -19 -20 -21 -22 22 -24 27 -26 -27 -28 28 -30 -31
leaf_value=-0.47584331816434861 0.47966770754647009 0.092458093898025104 -0.42451065836681262 0.24964379325745598 0.22151720327489519 -0.15647292272132987 -0.17722562400194314 0.054105360073702674 0.09726173176765443 -0.0599126058154636 -0.32147545403242112 0.13499003238479299 -0.04697643348664949 0.15366154401466764 -0.056740886197573899 -0.26375092188517252 0.071605666869878765 0.27607217095278463 0.06850379770331913 -0.47696823921054604 -0.34795576033384906 -0.20144384862671438 0.18202396535873411 0.042859712698880365 0.17233432391594197 0.10521666359901427 -0.11008530444958631 -0.083030696006921617 -0.51334065536657969 -0.40533563672279826
leaf_weight=70 97 167 72 126 34 136 26 140 25 54 20 120 33 29 69 21 150 116 45 20 23 142 20 34 58 20 34 26 24 49
leaf_count=70 97 167 72 126 34 136 26 140 25 54 20 120 33 29 69 21 150 116 45 20 23 142 20 34 58 20 34 26 24 49
internal_value=3.74988e-10 -0.0521998 -0.100547 0.0929727 -0.0730915 -0.0416554 0.0322238 -0.113909 -0.329496 0.0110616 0.14441 0.200471 0.147807 -0.0576746 -0.218416 0.0756031 0.0253608 0.204524 0.280501 -0.17263 -0.116072 -0.107374 -0.154102 -0.0243169 0.335014 0.415659 -0.323657 -0.155021 -0.289579 -0.222388
internal_weight=2000 1469 1102 367 984 809 400 409 118 241 531 361 175 225 175 141 170 149 220 74 48 191 162 224 175 117 106 84 50 185
internal_count=2000 1469 1102 367 984 809 400 409 118 241 531 361 175 225 175 141 170 149 220 74 48 191 162 224 175 117 106 84 50 185
is_linear=0
shrinkage=0.01


Tree=8
num_leaves=31
num_cat=0
split_feature=174 142 51 268 283 247 185 20 246 238 31 154 312 3 189 61 38 206 182 282 94 303 199 143 299 74 7 216 66 261
split_gain=147763 101052 67891.5 46160.2 44525.5 48207.2 54816.1 36290.3 36122.8 35675.7 35391.7 35270.4 33078.2 30761.4 29876.5 29824.3 27174.3 31265.6 29377.4 26211.4 25771.6 25264.4 24908.8 24757.5 23480.7 23554.9 23443 22368.4 22214 28691.5
threshold=0.028943041339516643 0.052064815536141403 -0.027489900588989254 0.074577942490577712 -0.0027347566792741414 0.080658409744501128 0.004836851032450796 0.043001740709437013 -0.019530512392520901 0.074356149882078185 0.031919190660119064 0.035193525254726417 0.027736964635550979 0.01993537054001783 -0.047266423702239983 -0.013648848980665205 -0.032944351434707635 -0.0080936793237924558 0.014946609735488893 0.010408416390419008 -0.016380012966692444 0.0086465580388903635 0.026911999098956588 -0.031540779396891587 0.042865576222538955 0.0053095901384949693 0.0011907208261467781 0.0029761245241388683 0.039817571640014655 0.015004396438598635
decision_type=2 2 2 2 2 2 2 2 2 2 2 2 2 2 2 2 2 2 2 2 2 2 2 2 2 2 2 2 2 2
left_child=1 2 8 10 21 6 7 15 -1 12 20 19 22 23 -12 -6 17 -7 -19 -2 -3 -4 -8 -13 25 -21 -10 -24 29 -18
right_child=11 3 4 -5 5 16 9 -9 26 -11 14 13 -14 -15 -16 -17 28 18 -20 24 -22 -23 27 -25 -26 -27 -28 -29 -30 -31
leaf_value=-0.47108488001142229 0.1214114251088793 0.25605878526881592 0.18223777172579006 0.24714735263869878 -0.20007765954031664 0.31440409264564517 -0.017004060596227645 0.37230091437049534 0.14657621848583222 -0.46599976160947015 -0.44951344357087059 -0.22158023414404496 -0.30500961252871683 -0.34146275260231712 -0.016178897241266765 0.11470707724491755 -0.15328273291681327 0.24149975673012111 -0.2270431136339903 0.27976420303857003 -0.0010224899727365245 -0.03283043454090754 0.023490179975827537 0.1487095505602303 0.43180916026686178 -0.070130984680010722 -0.30168747639017446 -0.33526771930002031 -0.36961999685867974 0.2548959181858943
leaf_weight=70 236 59 88 126 68 50 128 23 20 51 26 23 136 22 41 54 51 23 32 74 115 144 24 84 66 26 28 63 23 26
leaf_count=70 236 59 88 126 68 50 128 23 20 51 26 23 136 22 41 54 51 23 32 74 115 144 24 84 66 26 28 63 23 26
internal_value=4.58509e-10 -0.0516778 -0.0995413 0.092043 -0.0723606 -0.109724 -0.158739 0.0079436 -0.326201 -0.21886 0.010951 0.142966 -0.182951 -0.000906385 -0.184339 -0.0607467 0.0210631 0.133422 -0.031107 0.189133 0.0861487 0.0487472 -0.105742 0.0691146 0.285413 0.188791 -0.114911 -0.2363 -0.0969139 -0.0154562
internal_weight=2000 1469 1102 367 984 752 547 145 118 402 241 531 351 129 67 122 205 105 55 402 174 232 215 107 166 100 48 87 100 77
internal_count=2000 1469 1102 367 984 752 547 145 118 402 241 531 351 129 67 122 205 105 55 402 174 232 215 107 166 100 48 87 100 77
is_linear=0
shrinkage=0.01


Tree=9
num_leaves=31
num_cat=0
split_feature=174 142 51 206 283 276 103 74 149 149 314 185 311 246 211 172 303 308 279 301 3 238 331 81 7 303 60 290 312 218
split_gain=144830 99157 69868.5 48429.6 43994.1 44939.3 39813 36670.3 38905.4 36043.1 37464.8 34750.4 42090.6 31947.9 30962.4 30142.6 29949.2 29800.8 29461.3 28991.3 28307.5 27706.9 27487.1 26224 26217.3 25447.8 25274.4 23354.4 22546 22402.7
threshold=0.026742231100797657 0.05267946049571038 -0.027489900588989254 0.0049300887621939191 -0.0027347566792741414 0.0088074957020580786 0.0095937424339354056 0.0079355398193001764 -0.018813756294548508 0.01266579329967499 0.05237176455557347 0.011212083976715805 -0.046129992231726639 -0.019530512392520901 0.021896624937653545 -0.089738186448812471 0.0089413044042885321 0.030531452968716625 0.012627477291971447 0.012166554108262064 0.083486585502780916 0.077637393027544035 0.014068098273128273 -0.055441271513700478 0.0011907208261467781 0.0086465580388903635 0.017386245541274551 0.0061448663473129281 0.065405610948801055 0.078072834759950652
decision_type=2 2 2 2 2 2 2 2 2 2 2 2 2 2 2 2 2 2 2 2 2 2 2 2 2 2 2 2 2 2
left_child=1 2 13 6 25 23 18 8 22 10 11 17 -13 -1 -5 -9 27 -7 -3 -18 -10 28 -2 -6 -15 -4 -24 -11 29 -14
right_child=7 3 4 14 5 9 -8 15 20 16 -12 12 21 24 -16 -17 19 -19 -20 -21 -22 -23 26 -25 -26 -27 -28 -29 -30 -31
leaf_value=-0.46637403338296074 0.35481450261871017 0.4234453337327127 0.1832162409449189 -0.45259206461906432 -0.39500042703480293 -0.016989340440680584 -0.013495205227157166 -0.32750876914371141 0.12268754185600715 -0.21962281013980056 0.13166993868350982 -0.37571075025151984 0.17075556984814733 0.14511044669151307 -0.0084902049029526652 0.067882051217632425 -0.54464164024744277 0.38377359488736029 0.1525920557492135 -0.13493824535800567 -0.28102362130582331 -0.4032519262769948 0.27871062264886015 -0.09980769566127233 -0.33257934139006667 -0.033399676092796857 -0.092450052993372084 0.20100476048209451 -0.32730143661084382 -0.079208981588627533
leaf_weight=70 150 62 87 20 78 96 87 22 132 33 105 61 55 20 73 156 39 23 114 31 20 23 43 49 27 144 32 22 23 103
leaf_count=70 150 62 87 20 78 96 87 22 132 33 105 61 55 20 73 156 39 23 114 31 20 23 43 49 27 144 32 22 23 103
internal_value=1.38478e-10 -0.0527384 -0.100101 0.0921444 -0.0723115 -0.109875 0.161502 0.13731 0.193163 -0.0744568 -0.0357196 -0.0814902 -0.145238 -0.330971 -0.103996 0.0190135 -0.225996 0.060469 0.248006 -0.363202 0.0695677 -0.076322 0.276659 -0.281107 -0.129307 0.0481829 0.120349 -0.0513718 -0.0347785 0.007804
internal_weight=2000 1445 1089 356 972 741 263 555 377 614 489 384 265 117 93 178 125 119 176 70 152 204 225 127 47 231 75 55 181 158
internal_count=2000 1445 1089 356 972 741 263 555 377 614 489 384 265 117 93 178 125 119 176 70 152 204 225 127 47 231 75 55 181 158
is_linear=0
shrinkage=0.01


Tree=10
num_leaves=31
num_cat=0
split_feature=174 142 51 268 266 67 272 312 101 246 31 100 27 19 294 151 185 314 311 228 112 179 245 115 137 11 29 157 125 260
split_gain=141975 97103.3 65195 44864.8 43697.5 51820.1 50104.5 43526.5 36520.3 34710.3 34527.7 34406.2 33775.1 33116.2 32487.3 34308.7 29445.6 28031.9 28075.4 27674.9 27334.6 24669.4 24519 23920 23121.7 26711.2 23033.1 22234.6 21887.7 21829
threshold=0.028943041339516643 0.052064815536141403 -0.027489900588989254 0.074577942490577712 0.10520440340042116 0.069496300071477904 -0.02014555316418409 0.048003545030951507 -0.034352853894233697 -0.019530512392520901 0.028035655617713932 0.021955737844109539 0.063682656735181822 0.010393909873874492 -0.036113437265157693 0.017833192832767967 0.086813982576131835 0.050864931195974357 -0.034568481147289269 0.063965316861867919 0.019564229995012287 0.05332577787339688 0.021140382625162605 -0.055438494309782975 0.046869074925780303 0.00080666744025385221 -0.00070868656621314574 -0.057293953374028199 0.065395988523960127 0.032743860036134727
decision_type=2 2 2 2 2 2 2 2 2 2 2 2 2 2 2 2 2 2 2 2 2 2 2 2 2 2 2 2 2 2
left_child=1 2 9 10 5 7 23 8 -4 -1 -3 12 24 -6 15 -8 17 18 -10 20 -13 -18 -12 -7 25 -2 -11 -14 -27 -5
right_child=11 3 4 29 13 6 14 -9 16 26 22 19 27 -15 -16 -17 21 -19 -20 -21 -22 -23 -24 -25 -26 28 -28 -29 -30 -31
leaf_value=-0.46171031733921597 0.48624169770993442 0.089960208333537961 0.22926093679306836 0.32477072739994134 0.26956995866952405 -0.054702086196891195 0.41738593274896796 -0.24663324729780134 -0.1993942219870431 0.097541866588592527 -0.058750303718778818 -0.091525842813735311 -0.18002480258282863 -0.080294519215822216 -0.27247262793544091 -0.062752158486324816 -0.038326242593201727 0.16096557564770475 0.018786110000477897 -0.30144387103044074 0.26659080679862734 -0.37715308711642309 -0.46862899050116541 -0.37044175497061915 0.11490448941386515 0.34045718484614268 -0.34095164882748025 0.16206285607657936 0.11215684739894727 0.030905895797269687
leaf_weight=70 51 167 58 91 62 29 22 89 84 25 54 47 38 48 38 46 44 85 198 26 39 42 20 139 124 83 23 38 85 35
leaf_count=70 51 167 58 91 62 29 22 89 84 25 54 47 38 48 38 46 44 85 198 26 39 42 20 139 124 83 23 38 85 35
internal_value=-4.83268e-10 -0.0506555 -0.0975745 0.0902292 -0.0709391 -0.0945804 -0.208525 -0.0425457 -0.00700008 -0.319687 0.0102832 0.140137 0.181755 0.116902 -0.0382837 0.0925866 -0.0372498 0.00177823 -0.0462038 -0.0155555 0.0708759 -0.2038 -0.169528 -0.315939 0.224017 0.285797 -0.11257 -0.00898097 0.224948 0.243142
internal_weight=2000 1469 1102 367 984 874 274 600 511 118 241 531 419 110 106 68 453 367 282 112 86 86 74 168 343 219 48 76 168 126
internal_count=2000 1469 1102 367 984 874 274 600 511 118 241 531 419 110 106 68 453 367 282 112 86 86 74 168 343 219 48 76 168 126
is_linear=0
shrinkage=0.01


Tree=11
num_leaves=31
num_cat=0
split_feature=174 142 51 206 276 266 312 103 154 246 19 279 272 211 96 325 3 114 81 21 47 137 192 252 271 246 303 29 102 257
split_gain=139149 95170.9 63897.6 44344 42845.2 41335 42250.6 35445.9 34200.9 34019.5 33944.6 32797 31532.3 31090.5 30770.1 31658.8 29599.5 26745 26368 25623.8 30986.8 26716.2 26395 25103.6 24535.1 23886 22597 22574.8 21737 21600.9
threshold=0.028943041339516643 0.052064815536141403 -0.027489900588989254 0.0049300887621939191 0.014489541761577131 0.10520440340042116 0.044533682987093932 0.0082055153325200098 0.035193525254726417 -0.019530512392520901 0.010393909873874492 0.012627477291971447 -0.018281460739672181 0.021896624937653545 0.060157774016261108 0.067821972072124495 0.01993537054001783 0.0030068596825003628 -0.05813681706786155 0.012086508450988983 0.049792451784014709 0.053327446803450591 0.034938773140311248 0.033640224486589439 0.020379098132252697 0.027631208300590519 0.028998392634093765 -0.00070868656621314574 -0.027434528805315491 0.0087732328101992624
decision_type=2 2 2 2 2 2 2 2 2 2 2 2 2 2 2 2 2 2 2 2 2 2 2 2 2 2 2 2 2 2
left_child=1 2 9 7 18 6 14 11 19 -1 -7 -3 -8 -5 15 23 24 29 25 20 21 -2 -21 -6 -10 -4 28 -11 -16 -17
right_child=8 3 4 13 5 10 12 -9 16 27 -12 -13 -14 -15 26 17 -18 -19 -20 22 -22 -23 -24 -25 -26 -27 -28 -29 -30 -31
leaf_value=-0.45709318215506417 0.32803088353338994 0.42720150425036751 -0.35929060167736482 -0.44699288153648375 -0.17816487082242966 0.34703054356078306 -0.33270614519715308 -0.0040846756164745618 -0.12263188091062364 0.096566448497772212 -0.047404793143272402 0.14045761209576069 -0.0096262693793877311 -0.0032513750871022542 -0.04331578281947545 -0.45646116692679273 -0.33700025601820516 0.041245369222015146 -0.064106062748852902 0.26281072865361754 -0.0042471639868223443 0.12475115647729564 -0.16639955640623444 0.083876453795853789 0.18747020639479162 0.01201789637406667 -0.057042052006721501 -0.33754214084666706 0.25436553559652192 -0.16781284953355791
leaf_weight=70 190 60 99 20 50 48 88 93 42 25 40 119 46 75 35 35 22 44 85 23 53 98 38 136 65 21 75 23 82 100
leaf_count=70 190 60 99 20 50 48 88 93 42 25 40 119 46 75 35 35 22 44 85 23 53 98 38 136 65 21 75 23 82 100
internal_value=1.00136e-09 -0.050149 -0.0965987 0.0893269 -0.0702297 -0.0363794 -0.0623746 0.154289 0.138736 -0.31649 0.167742 0.236573 -0.221798 -0.0966706 -0.0240214 -0.0779279 -0.00293784 -0.172864 -0.198861 0.184199 0.217966 0.258859 -0.00456617 0.0134352 0.0657479 -0.294312 0.0784571 -0.111444 0.165316 -0.242648
internal_weight=2000 1469 1102 367 984 779 691 272 531 118 88 179 134 95 557 365 129 179 205 402 341 288 61 186 107 120 192 48 117 135
internal_count=2000 1469 1102 367 984 779 691 272 531 118 88 179 134 95 557 365 129 179 205 402 341 288 61 186 107 120 192 48 117 135
is_linear=0
shrinkage=0.01


Tree=12
num_leaves=31
num_cat=0
split_feature=174 142 51 268 44 240 171 67 100 17 31 154 246 154 60 68 84 312 240 11 77 212 278 44 245 7 122 24 238 260
split_gain=136380 93277 62626.1 43619.8 42321.8 42307.2 41237.2 58799.4 39123.1 37116 33675.7 33520.3 33342.6 32231.5 29146.6 27918.4 31440.1 27487.7 27020.2 25281 25107.8 27744.1 24691.3 26898.8 23855.6 22312.1 21934.2 21767.1 21619.6 21312.2
threshold=0.028943041339516643 0.052064815536141403 -0.027489900588989254 0.074577942490577712 -0.072117201983928667 0.065735712647438063 0.011422939598560335 0.02460245601832867 -0.046799397096037858 0.0019320555708931609 0.028035655617713932 0.035193525254726417 -0.019530512392520901 -0.044609170407056802 -0.011688679922372101 0.012055750936269762 0.0069546930026263007 0.012429832946509125 0.026867588981986049 0.00065369887642009598 0.0020958048989996318 -0.029894515872001644 0.00055051919480320077 -0.018821056932210919 0.021140382625162605 0.0011907208261467781 0.019845281727612022 -0.021494577638804909 0.043896146118640907 0.012190279085189106
decision_type=2 2 2 2 2 2 2 2 2 2 2 2 2 2 2 2 2 2 2 2 2 2 2 2 2 2 2 2 2 2
left_child=1 2 12 10 5 27 7 9 28 -6 -3 19 -1 -8 -13 16 -10 -17 26 -2 22 -22 23 -21 -12 -14 -16 -4 -9 -5
right_child=11 3 4 29 6 -7 13 8 15 -11 24 14 25 -15 18 17 -18 -19 -20 20 21 -23 -24 -25 -26 -27 -28 -29 -30 -31
leaf_value=-0.4525222578048706 0.39039936626074356 0.088292559892117609 0.004591621693144453 0.35184093844559455 -0.1478027517980896 -0.29068170130252841 0.13661701058757675 0.12940788811758944 -0.32544137115478516 0.17479664888890351 -0.058705356441162246 0.23411539120045871 0.14477236768603324 -0.073250283736910601 0.23384334564979736 -0.22414727095899911 0.19289227477528834 -0.4655640400512126 -0.29801527910507641 0.28149765859378706 0.29462268641654482 0.018074224261602143 0.38801073829829691 -0.10507383804519972 -0.46300144392251968 -0.29254509121179584 -0.17484675159056981 0.28362507097962975 -0.22644917280443252 0.089034138443293401
leaf_weight=70 51 167 47 72 75 24 97 38 25 68 54 37 20 298 29 87 22 103 39 45 47 159 70 30 20 28 24 69 31 54
leaf_count=70 51 167 47 72 75 24 97 38 25 68 54 37 20 298 29 87 22 103 39 45 47 159 70 30 20 28 24 69 31 54
internal_value=7.40396e-10 -0.0496475 -0.0956328 0.0884336 -0.0695274 0.091497 -0.0962376 -0.161799 -0.240029 0.00560116 0.00960473 0.137349 -0.313325 -0.0217133 -0.00290846 -0.301039 -0.0828171 -0.355021 -0.0982333 0.182357 0.152128 0.0811702 0.252937 0.126869 -0.167975 -0.110329 0.0487761 0.170568 -0.0304699 0.239209
internal_weight=2000 1469 1102 367 984 140 844 449 306 143 241 531 118 395 129 237 47 190 92 402 351 206 145 75 74 48 53 116 69 126
internal_count=2000 1469 1102 367 984 140 844 449 306 143 241 531 118 395 129 237 47 190 92 402 351 206 145 75 74 48 53 116 69 126
is_linear=0
shrinkage=0.01


Tree=13
num_leaves=31
num_cat=0
split_feature=174 142 51 206 283 276 103 74 149 149 314 185 311 279 122 246 172 303 308 301 3 238 331 81 7 303 60 290 168 142
split_gain=133743 91534 64549.6 45962.1 42055.1 42950.8 37910.3 35200.4 37312.6 34500.6 36179.2 33416.6 40404.7 30343.7 29915.3 29405.4 28898.2 28667.7 28661.9 27710.5 27355.4 26973.4 26338.8 25098.9 24995.1 24495.5 24278.8 22411.8 21684.3 23342.6
threshold=0.026742231100797657 0.05267946049571038 -0.027489900588989254 0.0049300887621939191 -0.0027347566792741414 0.0088074957020580786 0.0082055153325200098 0.0079355398193001764 -0.018813756294548508 0.01266579329967499 0.05237176455557347 0.011212083976715805 -0.046129992231726639 0.012627477291971447 0.018219730816781524 -0.019530512392520901 -0.089738186448812471 0.0089413044042885321 0.030531452968716625 0.012166554108262064 0.083486585502780916 0.077637393027544035 0.014068098273128273 -0.055441271513700478 0.0011907208261467781 0.0086465580388903635 0.017386245541274551 0.0061448663473129281 0.015356682706624271 -0.010623472277075051
decision_type=2 2 2 2 2 2 2 2 2 2 2 2 2 2 2 2 2 2 2 2 2 2 2 2 2 2 2 2 2 2
left_child=1 2 15 6 25 23 13 8 22 10 11 18 -13 -3 -5 -1 -9 27 -7 -19 28 -14 -2 -6 -17 -4 -24 -11 29 -10
right_child=7 3 4 14 5 9 -8 16 20 17 -12 12 21 -15 -16 24 -18 19 -20 -21 -22 -23 26 -25 -26 -27 -28 -29 -30 -31
leaf_value=-0.44799703504358024 0.34494630654454234 0.42677976759813596 0.18081733704469671 0.036768297820255674 -0.38502501170604658 -0.015409722088952549 -0.01036696328719457 -0.323246121189811 -0.0721726712398231 -0.21380923621582262 0.13081658234766552 -0.3669766422959625 -0.032655004318700644 0.1474101303138754 -0.33343499299458096 0.14332464820146559 0.063897509697394869 -0.53146084568439389 0.3776208609860876 -0.13090990727947605 -0.2790119929611683 -0.39621832629908688 0.27064161617915294 -0.09623407959938049 -0.32309820488647178 -0.031706658882192443 -0.093135018972679978 0.19824185111305931 -0.1611682484201763 0.26276684163897129
leaf_weight=70 150 59 87 58 78 96 90 22 28 33 105 61 181 114 35 20 156 39 23 31 20 23 43 49 27 144 32 22 23 81
leaf_count=70 150 59 87 58 78 96 90 22 28 33 105 61 181 114 35 20 156 39 23 31 20 23 43 49 27 144 32 22 23 81
internal_value=5.41257e-10 -0.0506796 -0.0961855 0.0885227 -0.0694744 -0.1062 0.15609 0.13195 0.186672 -0.071575 -0.0336758 -0.0786542 -0.141167 0.242686 -0.102556 -0.318094 0.0160483 -0.219837 0.0605542 -0.354074 0.0656327 -0.073645 0.268441 -0.273602 -0.12462 0.0483348 0.11543 -0.0489888 0.117852 0.176727
internal_weight=2000 1445 1089 356 972 741 263 555 377 614 489 384 265 173 93 117 178 125 119 70 152 204 225 127 47 231 75 55 132 109
internal_count=2000 1445 1089 356 972 741 263 555 377 614 489 384 265 173 93 117 178 125 119 70 152 204 225 127 47 231 75 55 132 109
is_linear=0
shrinkage=0.01


Tree=14
num_leaves=31
num_cat=0
split_feature=174 142 51 206 283 238 14 103 111 74 149 65 279 122 241 172 168 233 331 303 60 6 214 86 332 305 112 297 311 114
split_gain=131081 89712.5 63265.1 45047.4 41218.2 42120.4 39820.8 37155.9 36585.8 34499.9 36570.1 32370.6 29739.9 29320 29175.4 28323.2 26966.8 26823.1 25814.7 24008 23795.6 23353.8 22983.7 29354.9 21190.9 21023.2 20799.3 20167.9 19866.6 19552.7
threshold=0.026742231100797657 0.05267946049571038 -0.027489900588989254 0.0049300887621939191 -0.0027347566792741414 0.074356149882078185 0.026539925225279454 0.0082055153325200098 0.0077810238581150779 0.0079355398193001764 -0.018813756294548508 0.062597028911113753 0.012627477291971447 0.018219730816781524 -0.0066738112363964311 -0.089738186448812471 -0.079272896051406846 0.0022896929876878862 0.014068098273128273 0.0086465580388903635 0.017386245541274551 0.0010991204738398485 0.075818162411451354 0.018263995647430423 -0.038868537172675126 0.12575387954711917 0.014025335665792229 0.020484173670411113 0.01000678399577737 -0.029508413746953007
decision_type=2 2 2 2 2 2 2 2 2 2 2 2 2 2 2 2 2 2 2 2 2 2 2 2 2 2 2 2 2 2
left_child=1 2 14 7 19 6 8 12 22 10 18 -7 -3 -5 -1 -11 -10 27 25 28 -20 -18 -6 24 -24 -2 -19 -12 -4 -17
right_child=9 3 4 13 5 11 -8 -9 16 15 17 -13 -14 -15 -16 29 21 26 20 -21 -22 -23 23 -25 -26 -27 -28 -29 -30 -31
leaf_value=-0.45861481859348713 0.39444106063246731 0.4225119644302433 0.069380147549274726 0.03640061393893998 -0.10292342703666119 -0.4006871775275952 0.22952676221728324 -0.01026329600976573 0.27581584123549641 -0.32001366409388454 0.044214192094248636 0.036214579452167855 0.14593602686009388 -0.33010064240864345 -0.14138557501558988 0.18575429604716703 0.055090616890344737 -0.2825466108802826 0.26793519850387132 -0.03138959230751627 -0.092203669459559032 -0.1224700716434349 -0.10082811190187931 -0.021627695148189862 -0.47305881999089167 0.076775746059417727 0.10957403504600129 0.3371341720315395 0.38730429611603423 -0.039061459857751342
leaf_weight=64 125 59 57 58 151 74 40 90 27 22 57 22 114 35 53 71 121 31 43 144 32 191 20 30 65 25 24 40 30 85
leaf_count=64 125 59 57 58 151 74 40 90 27 22 57 22 114 35 53 71 121 31 43 144 32 191 20 30 65 25 24 40 30 85
internal_value=-1.55995e-09 -0.0501728 -0.0952237 0.0876374 -0.0687796 -0.105138 -0.0760517 0.154529 -0.0962553 0.13063 0.184805 -0.300564 0.24026 -0.10153 -0.314913 0.0158878 -0.0273711 0.0649764 0.265757 0.0478515 0.114276 -0.0536084 -0.184044 -0.290558 -0.385475 0.341497 -0.111439 0.165006 0.179009 0.0632585
internal_weight=2000 1445 1089 356 972 741 645 263 605 555 377 96 173 93 117 178 339 152 225 231 75 312 266 115 85 150 55 97 87 156
internal_count=2000 1445 1089 356 972 741 645 263 605 555 377 96 173 93 117 178 339 152 225 231 75 312 266 115 85 150 55 97 87 156
is_linear=0
shrinkage=0.01


Tree=15
num_leaves=31
num_cat=0
split_feature=174 142 51 206 44 240 171 67 100 103 74 149 17 154 279 211 246 172 185 319 3 331 7 60 168 142 47 258 238 305
split_gain=128473 87927.2 62006.1 44151 40977.2 40723.2 40423.6 51170.2 37239.5 36416.5 33813.4 35842.4 31703.3 30163.5 29148.1 28991.2 28805.8 27759.5 26774.9 27031.3 26668.1 25301 24508.3 23322.1 21131.6 22683.4 24281.7 21044.1 20871.7 20604.8
threshold=0.026742231100797657 0.05267946049571038 -0.027489900588989254 0.0049300887621939191 -0.072117201983928667 0.065735712647438063 0.011769127100706102 0.02460245601832867 -0.046799397096037858 0.0082055153325200098 0.0079355398193001764 -0.018813756294548508 0.0019320555708931609 -0.044609170407056802 0.012627477291971447 0.021896624937653545 -0.019530512392520901 -0.089738186448812471 0.00053921769722364854 0.027649887837469581 0.083486585502780916 0.014068098273128273 0.0011907208261467781 0.017386245541274551 0.015356682706624271 -0.010623472277075051 0.03762288577854634 0.12227175012230874 0.043896146118640907 0.12575387954711917
decision_type=2 2 2 2 2 2 2 2 2 2 2 2 2 2 2 2 2 2 2 2 2 2 2 2 2 2 2 2 2 2
left_child=1 2 16 9 5 -4 7 12 28 14 11 21 -6 -8 -3 -5 -1 -12 19 -10 24 29 -18 -23 25 -13 -27 -15 -9 -2
right_child=10 3 4 15 6 -7 13 8 18 -11 17 20 -14 27 -16 -17 22 -19 -20 -21 -22 23 -24 -25 -26 26 -28 -29 -30 -31
leaf_value=-0.44033580604621342 0.39049665274500844 0.41828684936135502 0.16971206335399461 -0.43783125329017636 -0.14495544334948063 -0.27560182275772099 0.13733869251865213 0.12900380463976607 -0.32300393807888028 -0.01016066208647357 -0.31681352723728529 -0.071354612995471273 0.15319480526480167 -0.022582079708041634 0.14447666765305034 -0.008099170980388171 0.14505001893639566 0.062625948106153656 -0.34102668935824659 0.19068604927243932 -0.27596091228723529 0.26525584691485693 -0.31680848664707606 -0.091281629698351033 -0.15955576890836592 0.35796150708784824 -0.043553902149200442 -0.22353974999750365 -0.22064388644310737 0.076007989740371706
leaf_weight=70 125 59 115 20 75 25 93 38 20 90 22 28 68 223 114 73 20 156 195 21 20 43 27 32 23 61 20 68 31 25
leaf_count=70 125 59 115 20 75 25 93 38 20 90 22 28 68 223 114 73 20 156 195 21 20 43 27 32 23 61 20 68 31 25
internal_value=-2.963e-10 -0.049671 -0.0942714 0.0867611 -0.0680918 0.0901917 -0.0947261 -0.159259 -0.232438 0.152984 0.129324 0.182957 -0.0031777 -0.0194375 0.237857 -0.100515 -0.311764 0.0157289 -0.292186 -0.0598944 0.0643266 0.263099 -0.120273 0.113133 0.115885 0.174006 0.258822 -0.0695413 -0.0280843 0.338082
internal_weight=2000 1445 1089 356 972 140 832 448 305 263 555 377 143 384 173 93 117 178 236 41 152 225 47 75 132 109 81 291 69 150
internal_count=2000 1445 1089 356 972 140 832 448 305 263 555 377 143 384 173 93 117 178 236 41 152 225 47 75 132 109 81 291 69 150
is_linear=0
shrinkage=0.01


Tree=16
num_leaves=31
num_cat=0
split_feature=174 142 51 206 266 67 272 312 103 101 74 149 93 294 151 122 241 185 314 172 279 3 311 331 179 115 60 272 47 276
split_gain=125916 86177.4 60772.2 43272.4 40371.5 48176.6 47775.6 37970.1 35692.2 33630.3 33140.5 35129.1 31898.8 31157.7 32377.1 28597.2 28591 27666.7 27351 27207.1 26403.8 26137.4 25183.5 24797.5 23542.9 23431.5 22858 20834.3 20742.3 20737.8
threshold=0.026742231100797657 0.05267946049571038 -0.027489900588989254 0.0049300887621939191 0.10520440340042116 0.069496300071477904 -0.02014555316418409 0.048003545030951507 0.0095937424339354056 -0.034352853894233697 0.0079355398193001764 -0.018813756294548508 -0.02788740303367376 -0.036113437265157693 0.017833192832767967 0.018219730816781524 -0.0066738112363964311 0.086813982576131835 0.050864931195974357 -0.089738186448812471 0.012627477291971447 0.083486585502780916 -0.034568481147289269 0.014068098273128273 0.05332577787339688 -0.055438494309782975 0.017386245541274551 -0.017656043171882626 0.03762288577854634 0.047202551737427718
decision_type=2 2 2 2 2 2 2 2 2 2 2 2 2 2 2 2 2 2 2 2 2 2 2 2 2 2 2 2 2 2
left_child=1 2 16 8 5 7 25 9 20 -4 11 23 -6 14 -8 -5 -1 18 22 -12 -3 28 -11 -2 -19 -7 -25 -9 -13 -20
right_child=10 3 4 15 12 6 13 27 -10 17 19 21 -14 -15 -16 -17 -18 24 29 -21 -22 -23 -24 26 -26 -27 -28 -29 -30 -31
leaf_value=-0.45090164164546875 0.33470105489492419 0.39944568763577165 0.22705574551495639 0.036710335396487138 -0.10482182746980248 -0.047065255559723955 0.41118100253018469 -0.34182304953706677 -0.014239225106677791 -0.18790662980079653 -0.31364539200609381 0.19002553751327328 0.24931363850387175 -0.2587362680068383 -0.056919010377592512 -0.32524528210503717 -0.13686539448657126 -0.034560527889565991 -0.029063333202810848 0.061999689186803812 0.14303189856049262 -0.27320130784437063 0.018351230656202786 0.2626032901226088 -0.36556084835813157 -0.35975935224605643 -0.090368813788518312 -0.0096639217862061096 -0.093959534772804804 0.29104481984227898
leaf_weight=64 150 62 55 58 41 29 22 58 87 85 22 97 67 39 45 35 53 44 34 156 114 20 195 43 42 138 32 28 35 50
leaf_count=64 150 62 55 58 41 29 22 58 87 85 22 97 67 39 45 35 53 44 34 156 114 20 195 43 42 138 32 28 35 50
internal_value=2.26097e-10 -0.0491743 -0.0933287 0.0858935 -0.0674109 -0.0901965 -0.200065 -0.0394449 0.151454 -0.0063676 0.12803 0.181128 0.114873 -0.0340197 0.0967855 -0.0995095 -0.308646 -0.0348971 0.0032157 0.0155716 0.233359 0.0636833 -0.0442628 0.260468 -0.196212 -0.305459 0.112002 -0.233678 0.114726 0.161477
internal_weight=2000 1445 1089 356 972 864 273 591 263 505 555 377 108 106 67 93 117 450 364 178 176 152 280 225 86 167 75 86 132 84
internal_count=2000 1445 1089 356 972 864 273 591 263 505 555 377 108 106 67 93 117 450 364 178 176 152 280 225 86 167 75 86 132 84
is_linear=0
shrinkage=0.01


Tree=17
num_leaves=31
num_cat=0
split_feature=174 142 51 206 276 303 205 238 103 74 149 272 311 211 246 279 81 172 111 232 41 233 129 55 305 7 70 331 273 46
split_gain=123411 84462.5 59562.8 42411.2 39846 40370.8 37101 35142.6 35023.6 32481 34430 30490 29790.1 28276.6 28218.5 28030.1 26875.4 26665.7 26368.2 26305.9 28681.2 25993.8 24586.9 28251.8 24380.2 24031 23174.1 22388.1 23109.9 21005.3
threshold=0.026742231100797657 0.05267946049571038 -0.027489900588989254 0.0049300887621939191 0.0088074957020580786 0.020389222539961342 -0.051018962636589997 0.079764153808355345 0.0082055153325200098 0.0079355398193001764 -0.018813756294548508 -0.038313627243041985 -0.05232287943363189 0.021896624937653545 -0.019530512392520901 0.012627477291971447 -0.05621706880629062 -0.089738186448812471 0.0059463616926223048 -0.044287735596299165 0.012875972315669061 0.0022896929876878862 0.039365749806165702 -0.082023404538631425 0.12451558932662012 0.0011907208261467781 0.10697467252612115 0.012537902221083643 -0.032617256045341485 -0.01342894835397601
decision_type=2 2 2 2 2 2 2 2 2 2 2 2 2 2 2 2 2 2 2 2 2 2 2 2 2 2 2 2 2 2
left_child=1 2 14 8 16 6 -6 11 15 10 24 19 18 -5 -1 -3 26 -11 -8 -7 29 -12 -14 -24 27 -16 -4 28 -2 -21
right_child=9 3 4 13 5 7 12 -9 -10 17 21 -13 22 -15 25 -17 -18 -19 -20 20 -22 -23 23 -25 -26 -27 -28 -29 -30 -31
leaf_value=-0.43281416846173154 0.45111239560842514 0.41010953386203719 -0.41224809060926021 -0.43164830541610721 -0.13885239194048213 0.070488862341100522 -0.37944112114284351 -0.39684211981923961 -0.010054557485712899 -0.31050894049080935 0.16151748504528066 0.0027549579086295073 0.21600887211300432 -0.0072448723936734136 0.14669537019263953 0.14160158166171688 -0.049117380736479116 0.061379690858033992 0.061634998104789042 0.074568587297743016 -0.40774914121728834 -0.11062049818580802 -0.31313346340542747 0.10183835538427034 0.052522587270840353 -0.3106433950530158 -0.096341045720236648 0.1511375152711141 0.078742643237113955 -0.27709501385688784
leaf_weight=70 100 59 69 20 94 33 23 38 90 22 97 207 150 73 20 114 67 156 33 33 59 55 21 75 46 27 35 59 20 35
leaf_count=70 100 59 69 20 94 33 23 38 90 22 97 207 150 73 20 114 67 156 33 33 59 55 21 75 46 27 35 59 20 35
internal_value=-9.9726e-11 -0.0486826 -0.0923954 0.0850345 -0.0667368 -0.0371539 0.0346416 -0.107354 0.14994 0.12675 0.179316 -0.0773797 0.0886431 -0.0985144 -0.305559 0.233174 -0.205309 0.0154159 -0.119521 -0.181054 -0.246415 0.0630465 0.13603 0.0110633 0.257863 -0.116031 -0.305933 0.310632 0.389051 -0.106435
internal_weight=2000 1445 1089 356 972 801 396 405 263 555 377 367 302 93 117 173 171 178 56 160 127 152 246 96 225 47 104 179 120 68
internal_count=2000 1445 1089 356 972 801 396 405 263 555 377 367 302 93 117 173 171 178 56 160 127 152 246 96 225 47 104 179 120 68
is_linear=0
shrinkage=0.01


Tree=18
num_leaves=31
num_cat=0
split_feature=174 142 51 206 44 240 171 67 100 103 74 149 17 154 241 122 279 172 185 319 3 305 331 273 168 142 47 258 238 24
split_gain=120955 82781.7 58377.5 41567.3 39499 39404.6 39068.1 48983.5 35956.5 34326.6 31834.6 33744.9 30645.6 29165.5 28018.4 27892.2 27472.3 26135.1 25912 26325.2 25559.5 23895 21942.6 22650 20674.2 22132 23426 20270.2 20133 19402.1
threshold=0.026742231100797657 0.05267946049571038 -0.027489900588989254 0.0049300887621939191 -0.072117201983928667 0.065735712647438063 0.011769127100706102 0.02460245601832867 -0.046799397096037858 0.0082055153325200098 0.0079355398193001764 -0.018813756294548508 0.0015578186477502763 -0.044609170407056802 -0.0066738112363964311 0.018219730816781524 0.012627477291971447 -0.089738186448812471 0.00053921769722364854 0.027649887837469581 0.083486585502780916 0.12451558932662012 0.012537902221083643 -0.032617256045341485 0.015356682706624271 -0.010623472277075051 0.03762288577854634 0.12227175012230874 0.043896146118640907 -0.021494577638804909
decision_type=2 2 2 2 2 2 2 2 2 2 2 2 2 2 2 2 2 2 2 2 2 2 2 2 2 2 2 2 2 2
left_child=1 2 14 9 5 29 7 12 28 16 11 21 -6 -8 -1 -5 -3 -12 19 -10 24 22 23 -2 25 -13 -27 -15 -9 -4
right_child=10 3 4 15 6 -7 13 8 18 -11 17 20 -14 27 -16 -17 -18 -19 -20 -21 -22 -23 -24 -25 -26 26 -28 -29 -30 -31
leaf_value=-0.44332777716219424 0.44660127065032718 0.4060084339723749 0.0055539172370400692 0.037001061768367371 -0.1463026892876074 -0.27048962516784669 0.13595748650290632 0.1278268964980778 -0.31710105466842653 -0.0099540106521712416 -0.30740384871309456 -0.071980187488453723 0.14654503847020015 -0.021383549859705527 -0.13245233549261992 -0.32046529279436387 0.14018556478090191 0.060765894471834871 -0.33401598377105518 0.18983447734089126 -0.27072377149388194 0.051997362077236174 0.14962614028635673 0.077955218195915221 -0.15955160152652989 0.35153565355011673 -0.042841457724571229 -0.21861153663957822 -0.21557766483676047 0.27169892363463133
leaf_weight=64 100 59 45 58 73 25 93 38 20 90 22 28 70 223 53 35 114 156 195 21 20 46 59 20 23 61 20 68 31 70
leaf_count=64 100 59 45 58 73 25 93 38 20 90 22 28 70 223 53 35 114 156 195 21 20 46 59 20 23 61 20 68 31 70
internal_value=-6.83255e-10 -0.0481958 -0.0914715 0.0841842 -0.0660694 0.0893329 -0.0922189 -0.155661 -0.227259 0.14844 0.125483 0.177523 -0.00295065 -0.0182033 -0.302504 -0.0975293 0.230842 0.0152618 -0.285969 -0.0574511 0.062416 0.255285 0.307526 0.38516 0.112892 0.17038 0.254159 -0.0674712 -0.0264563 0.167555
internal_weight=2000 1445 1089 356 972 140 832 448 305 263 555 377 143 384 117 93 173 178 236 41 152 225 179 120 132 109 81 291 69 115
internal_count=2000 1445 1089 356 972 140 832 448 305 263 555 377 143 384 117 93 173 178 236 41 152 225 179 120 132 109 81 291 69 115
is_linear=0
shrinkage=0.01


Tree=19
num_leaves=31
num_cat=0
split_feature=174 142 51 206 266 67 272 312 103 101 19 74 149 294 151 246 211 279 185 314 309 332 233 7 331 91 179 60 208 276
split_gain=118548 81134.4 57215.8 40740.1 38989.2 46213.6 46139.2 36843.7 33643.5 32539.4 31261.6 31201.1 33073.4 30001.9 31442.3 27643.1 27579.7 26925.6 26328.8 27858.8 26830 25706.5 25277.6 23563 23427.9 23074.9 22744.5 22320.3 21320.3 21190.9
threshold=0.026742231100797657 0.05267946049571038 -0.027489900588989254 0.0049300887621939191 0.10520440340042116 0.069496300071477904 -0.02014555316418409 0.048003545030951507 0.0082055153325200098 -0.032015737146139138 0.010393909873874492 0.0079355398193001764 -0.018813756294548508 -0.036113437265157693 0.017833192832767967 -0.019530512392520901 0.021896624937653545 0.012627477291971447 0.086813982576131835 0.050864931195974357 -0.049288904294371598 0.010878863744437696 0.0022896929876878862 0.0011907208261467781 0.014068098273128273 -0.0086143836379051191 0.05332577787339688 0.017386245541274551 0.050944142043590553 0.047202551737427718
decision_type=2 2 2 2 2 2 2 2 2 2 2 2 2 2 2 2 2 2 2 2 2 2 2 2 2 2 2 2 2 2
left_child=1 2 15 8 5 7 25 9 17 -4 -6 12 24 14 -8 -1 -5 -3 19 20 -11 28 -14 -17 -2 -7 -20 -26 -13 -21
right_child=11 3 4 16 10 6 13 -9 -10 18 -12 21 22 -15 -16 23 -18 -19 26 29 -22 -23 -24 -25 27 -27 -28 -29 -30 -31
leaf_value=-0.42542947222931049 0.32488590315977733 0.40194834400031526 0.21518792515936291 -0.42555703926086424 0.26590117343763509 -0.057544382885098458 0.40594912832433527 -0.22942471411339072 -0.0098544708920849707 -0.26585220103678497 -0.076488887841502831 0.020366962633349677 0.15889689134875523 -0.25274005144070355 -0.055344258815050125 0.14826276069879532 -0.0064161713319282011 0.13878371267203699 -0.033019155406139117 -0.028268020153045654 -0.0013890558736019837 -0.1771696584582329 -0.10946604864705693 -0.30460050830134638 0.25724344844041869 -0.35621071274413008 -0.35835837250664121 -0.091552871996536847 0.3286752552616185 0.29665196993901416
leaf_weight=70 150 59 59 20 60 32 22 86 90 46 48 99 97 39 45 20 73 114 44 34 231 50 55 27 43 135 42 32 29 49
leaf_count=70 150 59 59 20 60 32 22 86 90 46 48 99 97 39 45 20 73 114 44 34 231 50 55 27 43 135 42 32 29 49
internal_value=-2.08756e-10 -0.0477138 -0.0905568 0.0833423 -0.0654088 -0.0878008 -0.195408 -0.038094 0.146956 -0.00551098 0.113728 0.124228 0.175748 -0.0322309 0.0961252 -0.299479 -0.096554 0.228534 -0.0347066 0.00284656 -0.0453071 0.0151092 0.0617919 -0.111893 0.252732 -0.298981 -0.191906 0.108424 0.0902181 0.163552
internal_weight=2000 1445 1089 356 972 864 273 591 263 505 108 555 377 106 67 117 93 173 446 360 277 178 152 47 225 167 86 75 128 83
internal_count=2000 1445 1089 356 972 864 273 591 263 505 108 555 377 106 67 117 93 173 446 360 277 178 152 47 225 167 86 75 128 83
is_linear=0
shrinkage=0.01


Tree=20
num_leaves=31
num_cat=0
split_feature=174 142 51 268 283 276 149 314 31 185 311 74 149 241 308 303 301 238 172 287 312 81 305 303 314 331 273 260 290 312
split_gain=116189 79519.8 56077.2 40363.5 38621.8 40004 32369.5 34371.7 31604.3 31540.6 37773.6 30580.2 32415.2 27457.2 27172.8 26797.1 26077.5 25604.1 25538.8 25036.5 24290.4 23433.6 23251.2 22691.8 21744.2 21207.4 22199.2 21177.6 21115.1 20820
threshold=0.026742231100797657 0.05267946049571038 -0.027489900588989254 0.074577942490577712 -0.0027347566792741414 0.0088074957020580786 0.01266579329967499 0.05237176455557347 0.028035655617713932 0.011212083976715805 -0.046129992231726639 0.0079355398193001764 -0.018813756294548508 -0.0066738112363964311 0.030531452968716625 0.0089413044042885321 0.012166554108262064 0.077637393027544035 -0.089738186448812471 0.0087168854661285895 0.03646365553140641 -0.055441271513700478 0.12451558932662012 0.0086465580388903635 0.018248353153467182 0.012537902221083643 -0.032617256045341485 0.012190279085189106 0.0061448663473129281 0.065405610948801055
decision_type=2 2 2 2 2 2 2 2 2 2 2 2 2 2 2 2 2 2 2 2 2 2 2 2 2 2 2 2 2 2
left_child=1 2 13 8 23 21 7 9 -3 14 -11 12 22 -1 -7 28 -17 29 -13 -14 -21 -6 25 -4 -10 26 -2 -5 -8 -12
right_child=11 3 4 27 5 6 15 -9 24 10 17 18 19 -15 -16 16 -18 -19 -20 20 -22 -23 -24 -25 -26 -27 -28 -29 -30 -31
leaf_value=-0.4358905358845368 0.43888639876246449 0.0824066926139157 0.17565492475084191 0.34192095944579215 -0.36916976519120048 -0.01238354405388236 -0.20494416668559567 0.13050771939470657 -0.31136550935201868 -0.35272990320549641 0.011746237251577498 -0.30400565315376626 -0.048275515145876191 -0.12814408370065239 0.37030133797746639 -0.51200769399985291 -0.12343802367487262 -0.38338869447293489 0.059940121821486038 0.36257165334373709 -0.039840779279669128 -0.090123753742295865 0.049674711551355284 -0.02889490279576017 0.046720909710441322 0.14650512600349166 0.073926805794239048 0.073252382004261027 0.19500902333042838 -0.31027677028075512
leaf_weight=64 100 164 87 71 78 96 33 105 43 61 158 22 88 53 23 39 31 23 156 40 24 49 46 144 28 59 20 50 22 23
leaf_count=64 100 164 87 71 78 96 33 105 43 61 158 22 88 53 23 39 31 23 156 40 24 49 46 144 28 59 20 50 22 23
internal_value=1.82018e-10 -0.0472367 -0.0896512 0.0825089 -0.0647547 -0.0999496 -0.0665331 -0.0298231 0.00610283 -0.0736636 -0.134396 0.122986 0.173991 -0.296484 0.0615808 -0.210143 -0.339927 -0.0691098 0.0149581 0.061174 0.211667 -0.261506 0.250205 0.0481433 -0.170148 0.301737 0.37806 0.230901 -0.0449629 -0.0291738
internal_weight=2000 1445 1089 356 972 741 614 489 235 384 265 555 377 117 119 125 70 204 178 152 64 127 225 231 71 179 120 121 55 181
internal_count=2000 1445 1089 356 972 741 614 489 235 384 265 555 377 117 119 125 70 204 178 152 64 127 225 231 71 179 120 121 55 181
is_linear=0
shrinkage=0.01


Tree=21
num_leaves=31
num_cat=0
split_feature=174 272 67 77 241 77 279 109 283 154 103 168 77 297 330 3 94 274 171 260 241 21 47 192 137 271 314 217 34 264
split_gain=113902 79429.4 73630.7 44999.2 44163 53108.1 41031.9 36603.1 33470.4 31435.8 30905.8 30817.8 31331.1 30370.3 29728.9 27727.1 26983.1 25543.1 25059.3 24532.9 24079 23832.5 28092.1 24373.8 24262 22972.1 22168.3 21185.7 20880.8 24710.8
threshold=0.028943041339516643 -0.023648482747375962 0.049693282693624503 0.034034539014101035 -0.036849683150649064 0.016626611351966861 0.0019525952520780267 0.070548005402088179 0.030225142836570743 0.035193525254726417 0.0082055153325200098 -0.057802446186542504 -0.0071939539629966012 0.039071295410394676 -0.0032917474163696166 0.01993537054001783 0.04408612288534642 0.044895891100168235 0.015010436996817591 0.0080280038528144377 -0.056046582758426659 0.012086508450988983 0.049792451784014709 0.034938773140311248 0.053327446803450591 0.0092078894376754778 0.050589254125952728 0.057922951877117164 -0.017419271171092984 0.022626062855124477
decision_type=2 2 2 2 2 2 2 2 2 2 2 2 2 2 2 2 2 2 2 2 2 2 2 2 2 2 2 2 2 2
left_child=1 2 7 6 18 10 19 11 -8 21 14 12 -1 17 -6 25 20 -7 -4 -3 -13 22 24 -23 -2 -11 -18 -22 -5 -30
right_child=9 3 4 28 5 13 8 -9 -10 15 -12 16 -14 -15 -16 -17 26 -19 -20 -21 27 23 -24 -25 -26 -27 -28 -29 29 -31
leaf_value=0.47571343463042687 0.30652645533649542 0.49106321400556807 -0.45297867434268646 -0.14893384725912243 0.29512264672666788 -0.22335836682072344 0.13929979989223365 -0.18417784218885463 -0.062586101850453948 -0.14959955581360393 -0.22008229555402484 -0.29696810065313828 0.034047142797046237 0.019183843205956851 -0.091365420572897968 -0.33362933895804664 0.0058346502932291183 -0.51999005221185235 -0.15110998660326005 0.089769378685951223 -0.22909690936406452 0.24399490149124808 -0.0099070891709822535 -0.16845422709458752 0.11280846820802104 0.16050734779154752 0.32267661690711974 0.07434173150282157 -0.12358614390311035 0.19913558970908729
leaf_weight=29 190 39 88 141 48 94 205 98 137 36 35 43 36 34 34 22 63 42 40 25 33 23 53 38 98 71 34 76 46 49
leaf_count=29 190 39 88 141 48 94 205 98 137 36 35 43 36 34 34 22 63 42 40 25 33 23 53 38 98 71 34 76 46 49
internal_value=-1.73599e-10 -0.045372 -0.11016 0.0380855 -0.204176 -0.135284 0.101916 -0.0154595 0.0584274 0.125521 0.0286887 0.0371978 0.231098 -0.248135 0.134871 -0.0103055 -0.0134187 -0.314965 -0.358645 0.334308 -0.096578 0.169106 0.201672 -0.0129406 0.240609 0.0561723 0.116893 -0.017525 -0.0717245 0.0428703
internal_weight=2000 1469 827 642 415 287 406 412 342 531 117 314 65 170 82 129 249 136 128 64 152 402 341 61 288 107 97 109 236 95
internal_count=2000 1469 827 642 415 287 406 412 342 531 117 314 65 170 82 129 249 136 128 64 152 402 341 61 288 107 97 109 236 95
is_linear=0
shrinkage=0.01


Tree=22
num_leaves=31
num_cat=0
split_feature=174 272 67 77 241 77 279 109 283 154 103 168 77 297 330 3 94 274 171 260 241 21 47 192 137 143 314 217 61 34
split_gain=111636 77848.7 72165.4 44103.7 43284.1 52051.3 40215.4 35874.7 32804.3 30810.2 30290.8 30204.5 30707.6 29766 29137.3 27175.3 26446.2 25034.8 24580.8 24044.7 23599.8 23358.2 27533 23888.7 23779.2 22610.9 21727.2 20764.1 20696.3 20465.3
threshold=0.028943041339516643 -0.023648482747375962 0.049693282693624503 0.034034539014101035 -0.036849683150649064 0.016626611351966861 0.0019525952520780267 0.070548005402088179 0.030225142836570743 0.035193525254726417 0.0082055153325200098 -0.057802446186542504 -0.0071939539629966012 0.039071295410394676 -0.0032917474163696166 0.01993537054001783 0.04408612288534642 0.044895891100168235 0.022098758257925514 0.0080280038528144377 -0.056046582758426659 0.012086508450988983 0.049792451784014709 0.034938773140311248 0.053327446803450591 -0.031540779396891587 0.050589254125952728 0.057922951877117164 -0.011153326369822024 -0.017419271171092984
decision_type=2 2 2 2 2 2 2 2 2 2 2 2 2 2 2 2 2 2 2 2 2 2 2 2 2 2 2 2 2 2
left_child=1 2 7 6 18 10 19 11 -8 21 14 12 -1 17 -6 25 20 28 -4 -3 -13 22 24 -23 -2 -11 -18 -22 -7 -5
right_child=9 3 4 29 5 13 8 -9 -10 15 -12 16 -14 -15 -16 -17 26 -19 -20 -21 27 23 -24 -25 -26 -27 -28 -29 -30 -31
leaf_value=0.47095629823618923 0.30346119197379601 0.48615257986080956 -0.43506611994157235 -0.1474445095425802 0.29217141928772133 -0.30557826777579083 0.13790680352652945 -0.18233606294709809 -0.061960241128928464 -0.2221961089320805 -0.21788146918160575 -0.2939984189632327 0.033706667555703056 0.018992001870099237 -0.090451766333597555 -0.33029304807836363 0.0057763044134018912 -0.51479014921756017 -0.11503469057381153 0.088871683526039136 -0.22680594376542351 0.24155495042386263 -0.0098080165093799819 -0.16676968653735361 0.11168038309532768 0.13167671310271892 0.31944985046106228 0.073598310339607689 0.039579449202055521 0.042441626213098826
leaf_weight=29 190 39 96 141 48 71 205 98 137 23 35 43 36 34 34 22 63 42 32 25 33 23 53 38 98 84 34 76 23 95
leaf_count=29 190 39 96 141 48 71 205 98 137 23 35 43 36 34 34 22 63 42 32 25 33 23 53 38 98 84 34 76 23 95
internal_value=-2.63918e-10 -0.0449182 -0.109058 0.0377046 -0.202134 -0.133931 0.100897 -0.0153049 0.0578431 0.124265 0.0284019 0.0368259 0.228787 -0.245654 0.133523 -0.0102024 -0.0132846 -0.311816 -0.355058 0.330965 -0.0956122 0.167415 0.199655 -0.0128112 0.238202 0.0556106 0.115724 -0.0173498 -0.221125 -0.0710073
internal_weight=2000 1469 827 642 415 287 406 412 342 531 117 314 65 170 82 129 249 136 128 64 152 402 341 61 288 107 97 109 94 236
internal_count=2000 1469 827 642 415 287 406 412 342 531 117 314 65 170 82 129 249 136 128 64 152 402 341 61 288 107 97 109 94 236
is_linear=0
shrinkage=0.01


Tree=23
num_leaves=31
num_cat=0
split_feature=174 272 67 77 241 77 283 109 254 103 168 77 297 279 330 114 277 94 217 274 171 241 314 86 327 181 228 316 217 61
split_gain=109414 76299.6 70729.3 43226.1 42422.8 51015.4 39425.4 35160.8 30547.9 29688 29603.4 30096.5 29173.6 28618.7 28557.4 28291.5 26175.3 25919.9 25074 24536.6 24141.6 23130.2 21294.8 21009.5 20894.7 21428 20923.5 20458.1 20350.9 20284.5
threshold=0.028943041339516643 -0.023648482747375962 0.049693282693624503 0.034034539014101035 -0.036849683150649064 0.016626611351966861 0.030225142836570743 0.070548005402088179 0.013935408089309933 0.0082055153325200098 -0.057802446186542504 -0.0071939539629966012 0.039071295410394676 0.0051005131099373111 -0.0032917474163696166 -0.026898323558270928 0.0915813483297825 0.04408612288534642 0.10643423348665239 0.044895891100168235 0.015010436996817591 -0.056046582758426659 0.050589254125952728 -0.0080214678309857828 0.0018022146541625263 0.014082544483244421 0.059399075806140907 1.0000000180025095e-35 0.057922951877117164 -0.011153326369822024
decision_type=2 2 2 2 2 2 2 2 2 2 2 2 2 2 2 2 2 2 2 2 2 2 2 2 2 2 2 2 2 2
left_child=1 2 7 6 20 9 13 10 24 14 11 -1 19 -3 -6 -10 23 21 -8 29 -4 -12 -19 -17 25 -2 -26 -9 -23 -7
right_child=8 3 4 -5 5 12 18 27 15 -11 17 -13 -14 -15 -16 16 -18 22 -20 -21 -22 28 -24 -25 26 -27 -28 -29 -30 -31
leaf_value=0.46624673777613146 0.25901337138870184 0.39231282038092619 -0.44409822719891301 -0.070297220177885339 0.28924970551704365 -0.30252248438311297 -0.095688808345619381 0.06638166589736938 0.30274496282557495 -0.21570265442984446 -0.2910584356271943 0.033369600905312435 0.018802082678850959 0.12456073143566497 -0.089547248093192186 0.24560544711242363 -0.23634530186653138 0.005718542621249244 0.19648066441218059 -0.50964224866458341 -0.14780847945809364 -0.22453788246620787 0.3162553492013146 -0.033939025275409221 0.02320304883878772 -0.024203432574868202 -0.28514291171674377 -0.26506556915910279 0.072862329914381629 0.039183657541871073
leaf_weight=29 68 50 88 236 48 71 119 25 131 35 43 36 34 198 34 82 20 63 39 42 40 33 34 40 119 44 27 73 76 23
leaf_count=29 68 50 88 236 48 71 119 25 131 35 43 36 34 198 34 82 20 63 39 42 40 33 34 40 119 44 27 73 76 23
internal_value=-1.90428e-10 -0.044469 -0.107968 0.0373276 -0.200113 -0.132592 0.0998878 -0.0151518 0.123023 0.0281178 0.0364576 0.226499 -0.243198 0.178543 0.132188 0.196757 0.0989801 -0.0131517 -0.023571 -0.308697 -0.351508 -0.0946561 0.114566 0.153952 0.045001 0.14775 -0.0338198 -0.180513 -0.0171763 -0.218914
internal_weight=2000 1469 827 642 415 287 406 412 531 117 314 65 170 248 82 273 142 249 158 136 128 152 97 122 258 112 146 98 109 94
internal_count=2000 1469 827 642 415 287 406 412 531 117 314 65 170 248 82 273 142 249 158 136 128 152 97 122 258 112 146 98 109 94
is_linear=0
shrinkage=0.01


Tree=24
num_leaves=31
num_cat=0
split_feature=174 142 51 268 266 312 272 46 100 27 31 93 292 24 194 122 314 100 296 52 248 314 330 118 97 313 50 209 260 332
split_gain=107237 74934.4 51217.9 39355.2 38319.1 44618.7 42036.8 30339.9 30026 29971.3 29880.1 29872.7 29560.2 28580.9 30512 28186 26779.3 25635.9 24800.6 23636.9 23600.3 21201.4 21105.2 21032 21500.5 20677.1 20647.4 20354.5 19615.4 19291.7
threshold=0.028943041339516643 0.05267946049571038 -0.027489900588989254 0.074577942490577712 0.10520440340042116 0.02190328482538462 -0.018281460739672181 -0.047047657892107957 0.021955737844109539 0.055799841880798347 0.028035655617713932 -0.02788740303367376 0.091926742345094695 -0.0088652558624744398 0.034704864025115974 0.04915344528853894 0.066583223640918746 0.045039307326078422 -0.031441664323210709 0.073803156614303603 -0.010728934314101933 0.018248353153467182 -0.012653016485273836 0.069316044449806227 -0.0057952492497861377 -0.016431818716228005 0.0076990481466054925 -0.0013897475437261162 0.032743860036134727 0.0027979339938610796
decision_type=2 2 2 2 2 2 2 2 2 2 2 2 2 2 2 2 2 2 2 2 2 2 2 2 2 2 2 2 2 2
left_child=1 2 7 10 5 12 15 -1 9 20 -3 -6 13 19 -15 16 27 18 -10 -4 -2 -12 -16 24 -8 -21 -22 -7 -5 -11
right_child=8 3 4 28 11 6 23 -9 17 29 21 -13 -14 14 22 -17 -18 -19 -20 25 26 -23 -24 -25 -26 -27 -28 -29 -30 -31
leaf_value=-0.00075368042649893931 0.40523185458183292 0.080921128553809688 -0.14279176252780201 0.30293438691563074 -0.10053555008841723 -0.34914669640270285 0.028371629281477496 -0.37319146808948411 0.065327971696853643 0.082316469217556115 -0.30064371194351802 0.23936978960037231 0.17437597909010946 -0.060831571843313136 0.38392816268218066 -0.45962884825818678 0.11787808810671171 0.10499644767321073 -0.39927595098813379 0.28787585459076442 0.32525186437368392 0.047628408115485625 0.021434067262914677 0.17962520235293622 -0.31880683787663777 -0.13980764818191527 0.12163716939177383 -0.11449367143652019 0.017916007109663703 -0.25775514797730881
leaf_weight=29 50 164 278 90 41 81 44 89 20 69 44 70 64 92 36 51 24 65 27 26 65 29 29 37 30 20 213 68 33 22
leaf_count=29 50 164 278 90 41 81 44 89 20 69 44 70 64 92 36 51 24 65 27 26 65 29 29 37 30 20 213 68 33 22
internal_value=-4.76488e-11 -0.0440244 -0.0847169 0.0813314 -0.0612666 -0.0833513 -0.174174 -0.28166 0.121792 0.16067 0.00600829 0.113819 -0.0275246 -0.0543888 0.0563471 -0.253029 -0.192124 -0.0236529 -0.201572 -0.108048 0.205219 -0.162289 0.2222 -0.0150425 -0.112376 0.101927 0.169245 -0.242057 0.226466 0.000101353
internal_weight=2000 1469 1109 360 991 880 335 118 531 419 237 111 545 481 157 224 173 112 47 324 328 73 65 111 74 46 278 149 123 91
internal_count=2000 1469 1109 360 991 880 335 118 531 419 237 111 545 481 157 224 173 112 47 324 328 73 65 111 74 46 278 149 123 91
is_linear=0
shrinkage=0.01


Tree=25
num_leaves=31
num_cat=0
split_feature=174 272 67 77 241 77 283 109 154 103 168 77 297 330 3 94 274 89 171 282 241 271 217 184 314 232 36 316 217 61
split_gain=105103 74003.9 68919.2 42003.7 41407.3 49605.1 36897.2 34289.6 29733 28970.3 28731.3 29274 28463.9 27756.2 26114.8 25161.3 23950.3 23644.4 23547.3 23057.3 22506.5 22279.6 21560.3 21474.7 20696.7 20616.2 20606 19909.8 19827.7 19740.6
threshold=0.028943041339516643 -0.023648482747375962 0.049693282693624503 0.032231565564870841 -0.036849683150649064 0.016626611351966861 0.030225142836570743 0.070548005402088179 0.035193525254726417 0.0082055153325200098 -0.057802446186542504 -0.0071939539629966012 0.039071295410394676 -0.0032917474163696166 0.01993537054001783 0.04408612288534642 0.044895891100168235 0.06742920354008676 0.015010436996817591 0.010408416390419008 -0.056046582758426659 0.0092078894376754778 0.10681236162781717 0.046737924218177802 0.050589254125952728 0.041930986568331725 0.07450426742434503 1.0000000180025095e-35 0.057922951877117164 -0.011153326369822024
decision_type=2 2 2 2 2 2 2 2 2 2 2 2 2 2 2 2 2 2 2 2 2 2 2 2 2 2 2 2 2 2
left_child=1 2 7 6 18 9 17 10 19 13 11 -1 16 -6 21 20 29 25 -4 -2 -12 -10 -8 -21 -17 -3 -5 -9 -22 -7
right_child=8 3 4 26 5 12 22 27 14 -11 15 -13 -14 -15 -16 24 -18 -19 -20 23 28 -23 -24 -25 -26 -27 -28 -29 -30 -31
leaf_value=0.46013637203594732 0.099446712189819667 0.18209942827441478 -0.43809424769471994 -0.10535595466866372 0.28574921322365604 -0.29791075162484615 -0.084285975162290097 0.065764019584655761 -0.14965224620368747 -0.21275346429007397 -0.28644591383462731 0.033215089837710064 0.019356471159878898 -0.087695849020691483 -0.32530477177013045 0.0061200403221069819 -0.50266454547554962 0.40949001252651218 -0.14547408846020699 0.15852091837864446 -0.22096047859300266 0.15574475329526713 0.19556604362196392 0.38980732500553134 0.31226505279541017 -0.095245687868446116 0.12852951807820279 -0.26121099975011119 0.072592021568041107 0.039183482190837032
leaf_weight=29 236 165 88 208 48 71 117 25 36 35 43 36 34 34 22 63 42 38 40 98 33 71 36 68 34 32 46 73 76 23
leaf_count=29 236 165 88 208 48 71 117 25 36 35 43 36 34 34 22 63 42 38 40 98 33 71 36 68 34 32 46 73 76 23
internal_value=-1.39843e-10 -0.0435841 -0.10612 0.0369726 -0.197078 -0.13037 0.102418 -0.0144998 0.120575 0.028102 0.0364662 0.223688 -0.239437 0.130906 -0.0115218 -0.0124068 -0.304135 0.181103 -0.34665 0.162964 -0.0927097 0.0529944 -0.0184384 0.253265 0.113429 0.137048 -0.0629987 -0.177799 -0.0162817 -0.21543
internal_weight=2000 1469 827 642 415 287 388 412 531 117 314 65 170 82 129 249 136 235 128 402 152 107 153 166 97 197 254 98 109 94
internal_count=2000 1469 827 642 415 287 388 412 531 117 314 65 170 82 129 249 136 235 128 402 152 107 153 166 97 197 254 98 109 94
is_linear=0
shrinkage=0.01


Tree=26
num_leaves=31
num_cat=0
split_feature=174 272 67 77 238 7 279 109 283 254 168 77 37 114 33 277 94 94 180 247 241 325 263 3 86 314 28 34 264 226
split_gain=103011 72531.2 67547.7 41169.5 40663.1 52172 38551.2 33607.2 31303.6 29565 28159.5 28691.5 28107.2 27472.3 27224.3 25564.6 24660.6 23471.8 23345.1 22949.9 22058.6 21818.4 20512.1 28004.2 20474.8 20284.9 19964.6 19842.5 24029.4 21663.3
threshold=0.028943041339516643 -0.023648482747375962 0.049693282693624503 0.034034539014101035 0.041458893567323692 0.066048906762986262 0.0019525952520780267 0.070548005402088179 0.015007426962256433 0.013935408089309933 -0.057802446186542504 -0.0071939539629966012 0.044529384002089507 -0.026898323558270928 0.024891047738492492 0.0915813483297825 0.04408612288534642 0.0014590687933377924 0.029284853488206867 0.055546551942825324 -0.056046582758426659 0.064290773123502745 -0.011989639140665529 0.010613364577927021 -0.0080214678309857828 0.050589254125952728 -0.030034238472580906 -0.017419271171092984 0.022626062855124477 0.021035211160779003
decision_type=2 2 2 2 2 2 2 2 2 2 2 2 2 2 2 2 2 2 2 2 2 2 2 2 2 2 2 2 2 2
left_child=1 2 7 6 5 12 17 10 26 22 11 -1 -4 -11 -14 24 20 -3 19 -6 -12 -7 23 -2 -15 -18 -8 29 -29 -5
right_child=9 3 4 27 18 21 8 -9 -10 13 16 -13 14 15 -16 -17 25 -19 -20 -21 -22 -23 -24 -25 -26 -27 -28 28 -30 -31
leaf_value=0.45553501186699707 0.028186262736984546 0.52678825139999386 0.21357579405992649 -0.084758485453608243 -0.29657938721505078 -0.14130082161653609 -0.08493099762333764 -0.17602101614280624 -0.030575905155351083 0.2963494012283005 -0.28358145523556444 0.032882936795552577 -0.3142201554775238 0.24036252639279135 0.08510852641180941 -0.23583417004346849 0.0060588428803852621 0.14302497527178598 -0.36581069294865254 0.055382905630394816 -0.016118854418260241 -0.47936406462533138 0.16761939984457247 -0.35402640862898394 -0.035601542495191096 0.30914240300655366 0.21471536625235799 -0.12086641455474106 0.19737466287856201 -0.40438033965917736
leaf_weight=29 149 30 52 115 44 42 27 98 189 131 43 36 31 82 38 20 63 34 141 32 109 35 87 22 40 34 126 46 49 26
leaf_count=29 149 30 52 115 44 42 27 98 189 131 43 36 31 82 38 20 63 34 141 32 109 35 87 22 40 34 126 46 49 26
internal_value=3.43425e-10 -0.0431483 -0.105059 0.0366029 -0.195108 -0.0914805 0.0976568 -0.0143548 0.0555034 0.119369 0.0361016 0.221451 0.0380103 0.191908 -0.0943 0.0955562 -0.0122828 0.322914 -0.289662 -0.148385 -0.0917826 -0.294966 0.0426126 -0.0209873 0.149883 0.112294 0.161837 -0.0684306 0.043279 -0.143696
internal_weight=2000 1469 827 642 415 198 406 412 342 531 314 65 121 273 69 142 249 64 217 76 152 77 258 171 122 97 153 236 95 141
